t 0.097837 -0.317581 -0.505022 0.369466 -0.050189 -0.009978 0.074466 -0.225225 0.486407 -0.030824 -0.216597 0.275442 -0.170204 -0.312988 -0.125287 0.283580 -0.513990 0.276942 0.550443 -0.248074 -0.615334 -0.061251 -0.461236 -0.217894 -0.293498 0.093648 0.040387 0.616516 -0.191755 0.034893 0.070816 -0.534831 0.067321 -0.107061 0.097184 -0.182386 0.008658 -0.533751 0.178183 -0.008293 0.515603 0.692373 -0.171374 0.490550 -0.353142 0.152407 0.232402 0.553388 0.105320 0.666160 -0.046880 0.166113 -0.301487 -0.797974 0.331879 1.484000 0.277767 0.132381 -1.207619 -0.655425 0.132764 -0.552600 0.347228 -0.101898 -0.565712 0.062127 -0.384539 -0.454894 -0.356737 -0.249766 0.182800 0.238925 0.358738 0.669010 -0.218673 0.051830 0.148333 -0.140872 0.933310 0.045846 -0.734879 -0.084794 0.295134 -0.047521 0.835482 0.075847 0.032436 0.210812 -0.326616 0.369462 0.007824 0.163206 0.230979 -0.306742 0.752831 -0.270688 0.289215 0.379319 -0.762064 0.101923
h 0.171591 -0.556987 -0.885729 0.647985 -0.088023 -0.017501 0.130602 -0.395009 0.853081 -0.054061 -0.379876 0.483082 -0.298510 -0.548932 -0.219734 0.497354 -0.901457 0.485713 0.965391 -0.435083 -1.079199 -0.107425 -0.808935 -0.382151 -0.514749 0.164243 0.070832 1.081272 -0.336308 0.061196 0.124201 -0.938009 0.118071 -0.187768 0.170445 -0.319877 0.015185 -0.936115 0.312505 -0.014544 0.904287 1.214312 -0.300562 0.860348 -0.619355 0.267297 0.407596 0.970554 0.184714 1.168339 -0.082220 0.291336 -0.528760 -1.399519 0.582062 2.602702 0.487159 0.232175 -2.117972 -1.149512 0.232847 -0.969174 0.608982 -0.178713 -0.992169 0.108960 -0.674420 -0.797813 -0.625660 -0.438050 0.320603 0.419037 0.629170 1.173338 -0.383518 0.090902 0.260152 -0.247068 1.636878 0.080407 -1.288862 -0.148716 0.517618 -0.083344 1.465304 0.133024 0.056887 0.369730 -0.572833 0.647978 0.013722 0.286238 0.405100 -0.537976 1.320346 -0.474744 0.507237 0.665266 -1.336540 0.178758
e 0.055967 -0.181670 -0.288895 0.211351 -0.028710 -0.005708 0.042598 -0.128838 0.278246 -0.017633 -0.123903 0.157565 -0.097364 -0.179043 -0.071670 0.162220 -0.294025 0.158423 0.314878 -0.141909 -0.351998 -0.035038 -0.263847 -0.124645 -0.167894 0.053570 0.023103 0.352674 -0.109692 0.019960 0.040510 -0.305947 0.038511 -0.061244 0.055593 -0.104333 0.004953 -0.305329 0.101929 -0.004744 0.294948 0.396067 -0.098033 0.280616 -0.202013 0.087183 0.132944 0.316562 0.060248 0.381072 -0.026817 0.095024 -0.172464 -0.456476 0.189849 0.848913 0.158895 0.075728 -0.690811 -0.374932 0.075947 -0.316112 0.198629 -0.058290 -0.323612 0.035539 -0.219973 -0.260220 -0.204069 -0.142877 0.104570 0.136676 0.205214 0.382703 -0.125091 0.029649 0.084853 -0.080585 0.533894 0.026226 -0.420383 -0.048506 0.168830 -0.027184 0.477932 0.043388 0.018555 0.120593 -0.186839 0.211348 0.004476 0.093361 0.132130 -0.175470 0.430652 -0.154846 0.165444 0.216987 -0.435934 0.058305
, 0.272911 0.253066 -0.211895 0.382233 -0.125834 0.258578 0.103649 0.013375 0.046797 0.070262 0.339970 0.161382 0.040838 -0.280699 0.201247 0.047359 -0.330749 -0.030728 0.222950 0.057060 0.163205 -0.001848 0.012676 -0.105559 -0.059739 -0.433967 0.181347 0.348749 0.104064 -0.118771 0.065692 -0.267349 0.060656 -0.049997 -0.081808 -0.136957 -0.185573 -0.086390 0.043703 0.278916 0.316388 0.031330 -0.160909 0.010883 0.005108 -0.097557 0.022589 0.023617 -0.289038 0.172557 0.146363 -0.243713 -0.110966 -0.258518 0.092245 0.760062 0.238388 -0.129048 -0.368913 -0.454472 0.048718 -0.059738 0.094906 0.069964 -0.483869 0.037119 -0.199458 -0.209967 0.099444 -0.209522 0.128892 0.218924 -0.096472 0.369544 -0.088087 0.161848 0.035643 0.085320 0.215422 0.110267 -0.237972 -0.154607 0.313998 0.027629 0.267871 0.216773 0.358008 0.184173 -0.249316 0.183983 -0.030156 0.411497 0.046109 -0.553426 0.024183 -0.110382 -0.003979 0.357412 -0.077612 -0.162907
. 0.275229 0.120028 0.012358 0.244467 -0.039661 0.090562 0.047140 -0.069640 0.138053 0.081140 0.227253 0.196064 -0.407770 -0.156399 0.214535 -0.018563 -0.214128 -0.185735 0.011512 0.096754 -0.056731 0.100848 -0.193630 -0.087956 0.061857 -0.076295 0.142101 0.310400 0.124247 -0.082876 0.126290 -0.198367 0.063266 -0.083659 -0.096115 0.090268 -0.057286 -0.338038 -0.021085 0.233103 0.243609 0.080513 -0.232235 0.074652 -0.174803 0.001346 -0.196227 0.213413 -0.192450 -0.189948 0.160319 -0.115688 0.040809 -0.244602 0.021345 0.518419 -0.100933 -0.034206 -0.249665 -0.338076 -0.010636 -0.275160 -0.140452 0.023314 -0.632290 0.031357 -0.268631 -0.254953 -0.032570 0.083061 -0.083249 0.229062 -0.039989 0.261422 -0.247679 -0.039901 -0.070148 -0.008547 0.332295 0.051111 -0.431400 0.005981 0.222865 0.001549 0.465294 0.300755 0.250345 0.312953 0.008892 0.281821 -0.109574 0.292321 0.125615 -0.316665 0.115210 -0.122963 0.063409 0.214844 -0.134577 -0.225574
o 0.049343 -0.119418 -0.183648 0.136596 -0.010934 -0.004140 0.034946 -0.074964 0.178574 -0.011318 -0.069729 0.087096 -0.075564 -0.113713 -0.047692 0.115707 -0.184901 0.106488 0.214192 -0.081370 -0.233374 -0.021817 -0.176801 -0.074213 -0.121431 0.042290 0.013889 0.230573 -0.068183 0.016200 0.015534 -0.195038 0.024946 -0.030997 0.046035 -0.070288 0.018653 -0.192483 0.075037 -0.011276 0.195072 0.250563 -0.061479 0.168024 -0.124116 0.052671 0.067087 0.197953 0.024031 0.257806 -0.005524 0.060947 -0.127084 -0.309300 0.126569 0.548307 0.091479 0.052382 -0.443516 -0.230168 0.030840 -0.211337 0.122500 -0.050650 -0.216791 0.024761 -0.150628 -0.179983 -0.125953 -0.078319 0.064197 0.098241 0.131790 0.242720 -0.082616 0.008964 0.058730 -0.031074 0.336523 0.027430 -0.267824 -0.042647 0.109912 -0.022694 0.329428 0.045180 0.008676 0.089861 -0.106437 0.130467 0.009260 0.059519 0.079537 -0.115931 0.277101 -0.098124 0.095775 0.139617 -0.276436 0.027635
f 0.247535 -0.599070 -0.921288 0.685244 -0.054851 -0.020768 0.175310 -0.376063 0.895832 -0.056778 -0.349803 0.436923 -0.379071 -0.570452 -0.239249 0.580455 -0.927573 0.534206 1.074511 -0.408198 -1.170743 -0.109445 -0.886939 -0.372294 -0.609167 0.212153 0.069676 1.156688 -0.342045 0.081269 0.077928 -0.978424 0.125144 -0.155498 0.230939 -0.352604 0.093573 -0.965610 0.376428 -0.056567 0.978594 1.256973 -0.308415 0.842909 -0.622637 0.264230 0.336547 0.993048 0.120551 1.293305 -0.027713 0.305747 -0.637529 -1.551628 0.634943 2.750630 0.458913 0.262779 -2.224939 -1.154659 0.154710 -1.060189 0.614533 -0.254092 -1.087551 0.124217 -0.755637 -0.902903 -0.631854 -0.392896 0.322050 0.492834 0.661134 1.217627 -0.414453 0.044970 0.294622 -0.155885 1.688197 0.137604 -1.343565 -0.213940 0.551385 -0.113846 1.652602 0.226651 0.043525 0.450794 -0.533953 0.654498 0.046452 0.298582 0.399006 -0.581577 1.390102 -0.492249 0.480465 0.700403 -1.386765 0.138635
a 0.062621 -0.251668 -0.304006 0.243587 -0.006633 -0.016212 0.025215 -0.113704 0.320527 -0.018049 -0.121624 0.163371 -0.121070 -0.191729 -0.083545 0.147619 -0.310126 0.149493 0.327360 -0.128890 -0.382968 -0.031800 -0.263483 -0.106180 -0.245458 0.080829 0.045455 0.370913 -0.105599 0.044181 0.030852 -0.352308 0.080999 -0.048437 0.056729 -0.154011 0.046651 -0.289122 0.119014 -0.033873 0.281000 0.432311 -0.071025 0.283085 -0.211385 0.096394 0.141492 0.346768 0.061844 0.456643 -0.045257 0.123760 -0.173981 -0.517539 0.179869 0.942892 0.121994 0.092175 -0.776659 -0.385237 0.072507 -0.369501 0.225399 -0.075606 -0.376988 0.068601 -0.239917 -0.285277 -0.236023 -0.091240 0.137583 0.156797 0.216192 0.395262 -0.120738 0.051665 0.077078 -0.044726 0.557953 0.050816 -0.454351 -0.066053 0.176274 -0.070620 0.569527 0.063415 -0.039595 0.147144 -0.163855 0.229924 0.054556 0.080766 0.129610 -0.167660 0.443115 -0.138419 0.167886 0.240326 -0.489434 0.033122
n 0.092251 -0.370747 -0.447849 0.358843 -0.009772 -0.023883 0.037146 -0.167505 0.472188 -0.026589 -0.179172 0.240672 -0.178356 -0.282447 -0.123076 0.217466 -0.456866 0.220227 0.482254 -0.189875 -0.564173 -0.046846 -0.388153 -0.156421 -0.361598 0.119074 0.066963 0.546414 -0.155564 0.065086 0.045451 -0.519007 0.119325 -0.071356 0.083571 -0.226884 0.068725 -0.425922 0.175327 -0.049901 0.413958 0.636864 -0.104631 0.417029 -0.311404 0.142004 0.208440 0.510845 0.091106 0.672709 -0.066670 0.182319 -0.256302 -0.762418 0.264976 1.389032 0.179717 0.135789 -1.144142 -0.567516 0.106814 -0.544333 0.332048 -0.111379 -0.555363 0.101061 -0.353436 -0.420259 -0.347699 -0.134412 0.202682 0.230987 0.318485 0.582284 -0.177866 0.076111 0.113548 -0.065889 0.821954 0.074860 -0.669332 -0.097306 0.259680 -0.104034 0.839004 0.093420 -0.058329 0.216767 -0.241385 0.338714 0.080370 0.118982 0.190936 -0.246990 0.652779 -0.203913 0.247323 0.354038 -0.721015 0.048795
d 0.194591 -0.782044 -0.944681 0.756935 -0.020613 -0.050378 0.078354 -0.353330 0.996021 -0.056086 -0.377940 0.507667 -0.376220 -0.595787 -0.259613 0.458717 -0.963700 0.464540 1.017253 -0.400517 -1.190052 -0.098816 -0.818760 -0.329949 -0.762746 0.251171 0.141249 1.152590 -0.328144 0.137290 0.095872 -1.094779 0.251700 -0.150516 0.176282 -0.478582 0.144966 -0.898429 0.369830 -0.105260 0.873191 1.343384 -0.220706 0.879670 -0.656867 0.299540 0.439679 1.077563 0.192178 1.418994 -0.140632 0.384578 -0.540636 -1.608225 0.558933 2.929986 0.379091 0.286430 -2.413424 -1.197104 0.225311 -1.148203 0.700414 -0.234941 -1.171468 0.213175 -0.745528 -0.886483 -0.733427 -0.283524 0.427531 0.487238 0.671805 1.228255 -0.375186 0.160547 0.239514 -0.138984 1.733808 0.157907 -1.411871 -0.205255 0.547762 -0.219447 1.769773 0.197058 -0.123038 0.457242 -0.509171 0.714475 0.169530 0.250977 0.402755 -0.520995 1.376954 -0.430129 0.521696 0.746799 -1.520890 0.102926
i 0.037679 -0.108176 -0.154094 0.130755 -0.012339 0.002725 0.006979 -0.076846 0.158188 0.001478 -0.066843 0.075893 -0.051195 -0.107296 -0.034131 0.082997 -0.165559 0.082058 0.176271 -0.062917 -0.198272 -0.019840 -0.147439 -0.059731 -0.110583 0.038673 0.027418 0.185500 -0.057718 0.007271 0.011880 -0.175574 0.014840 -0.039606 0.024852 -0.078343 0.023928 -0.161934 0.043153 -0.013001 0.139574 0.217537 -0.031632 0.138405 -0.106162 0.031288 0.073314 0.166038 0.010937 0.209014 -0.006796 0.067330 -0.098086 -0.232721 0.102995 0.472849 0.088343 0.048064 -0.367694 -0.186125 0.032119 -0.171307 0.110667 -0.037678 -0.173195 0.031460 -0.112555 -0.155082 -0.099314 -0.074981 0.060447 0.071013 0.111205 0.204634 -0.067043 0.024328 0.026951 -0.031012 0.271495 0.012147 -0.224161 -0.032100 0.082916 -0.012323 0.252999 0.034335 -0.009451 0.083150 -0.097771 0.092168 0.013032 0.050852 0.062476 -0.097117 0.243074 -0.084587 0.075397 0.095113 -0.236677 0.030266
" -0.304570 -0.236450 0.175760 -0.728540 -0.283430 -0.256400 0.265870 0.025309 -0.074775 -0.376600 -0.057774 0.121590 0.343840 0.419280 -0.232360 -0.315470 0.609390 0.251170 -0.686670 0.708730 1.216200 -0.182400 -0.484420 -0.334450 0.303430 1.086000 0.499920 -0.201980 0.279590 0.683520 -0.335660 -0.124050 0.059656 0.336170 0.375010 0.565520 0.448670 0.112840 -0.161960 -0.943460 -0.679610 0.185810 0.060653 0.437760 0.138340 -0.482070 -0.561410 -0.254220 -0.524450 0.097003 -0.489250 0.190770 0.214810 1.496900 -0.866650 -3.284600 0.568540 0.419710 1.229400 0.785220 -0.293690 0.638030 -1.592600 -0.204370 1.530600 0.135480 0.507220 0.187420 0.485520 -0.289950 0.195730 0.004652 0.092879 -0.424440 0.649870 0.528390 0.077908 0.826300 -1.220800 -0.349550 0.498550 -0.641550 -0.723080 0.265660 -1.364300 -0.463640 -0.520480 -1.052500 0.228950 -0.345600 -0.658000 -0.167350 0.351580 0.743370 0.260740 0.061104 -0.390790 -0.845570 -0.035432 0.170360
' 5.837073 -13.110892 -22.977975 14.781718 -3.768761 0.511146 1.083035 -12.755920 23.660013 -5.030474 -8.172088 11.625573 -4.433561 -10.116742 -6.842697 11.607288 -28.081426 17.732211 24.571350 -10.379018 -30.052406 -2.221197 -24.449546 -11.470261 -15.761054 2.582365 3.061165 30.784327 -8.154593 -2.410570 7.307947 -29.119468 -2.267488 -6.467229 6.380279 -9.856612 1.560487 -26.930265 7.768470 -1.832981 24.311376 33.208043 -11.425596 22.620959 -17.955660 3.791036 11.608375 27.567492 4.812611 34.256452 -4.659725 9.963048 -18.418081 -35.540999 16.971655 79.966320 16.061561 6.677568 -60.180371 -28.761816 2.213803 -22.350058 18.136797 -5.267771 -28.224584 6.391391 -18.858905 -24.732946 -15.679570 -17.057771 8.238434 10.833934 16.758512 32.048327 -14.800070 3.511775 7.036099 -2.957122 45.443287 1.292088 -34.272238 -6.440621 13.648532 -0.543156 37.353284 2.578097 -0.129103 11.311643 -17.264615 20.487125 -2.540777 7.395840 10.488701 -17.426112 33.413238 -14.242146 9.140427 18.574712 -35.235950 7.657554
s 0.035586 -0.079930 -0.140085 0.090117 -0.022976 0.003116 0.006603 -0.077766 0.144243 -0.030668 -0.049821 0.070875 -0.027029 -0.061677 -0.041716 0.070764 -0.171198 0.108104 0.149799 -0.063276 -0.183214 -0.013542 -0.149057 -0.069928 -0.096087 0.015743 0.018662 0.187676 -0.049714 -0.014696 0.044553 -0.177527 -0.013824 -0.039427 0.038897 -0.060091 0.009513 -0.164180 0.047360 -0.011175 0.148214 0.202453 -0.069656 0.137909 -0.109467 0.023112 0.070770 0.168065 0.029340 0.208844 -0.028408 0.060740 -0.112286 -0.216675 0.103468 0.487514 0.097919 0.040710 -0.366889 -0.175346 0.013496 -0.136257 0.110571 -0.032115 -0.172071 0.038965 -0.114973 -0.150784 -0.095590 -0.103993 0.050226 0.066049 0.102168 0.195382 -0.090229 0.021410 0.042896 -0.018028 0.277045 0.007877 -0.208940 -0.039265 0.083208 -0.003311 0.227724 0.015717 -0.000787 0.068961 -0.105254 0.124900 -0.015490 0.045089 0.063944 -0.106238 0.203704 -0.086827 0.055725 0.113241 -0.214816 0.046684
r 0.035243 -0.108658 -0.161683 0.103311 -0.008847 -0.007215 0.027401 -0.066282 0.144681 -0.014911 -0.061398 0.077740 -0.064180 -0.091677 -0.042040 0.083390 -0.150304 0.082535 0.165673 -0.064271 -0.195281 -0.021320 -0.133044 -0.062562 -0.092956 0.029368 0.015843 0.181004 -0.048653 0.009602 0.018067 -0.166784 0.020930 -0.027462 0.034148 -0.054443 0.010948 -0.157068 0.068893 -0.003868 0.155456 0.210274 -0.048944 0.150261 -0.107359 0.049058 0.067147 0.156613 0.031879 0.216351 -0.011700 0.052129 -0.097558 -0.242093 0.097639 0.450685 0.069168 0.041226 -0.378425 -0.190875 0.046829 -0.174140 0.108201 -0.025786 -0.175498 0.021420 -0.118578 -0.133702 -0.108686 -0.062254 0.056804 0.075649 0.103409 0.197645 -0.059854 0.007743 0.047536 -0.028602 0.278441 0.021995 -0.222184 -0.030398 0.083582 -0.018700 0.275638 0.027198 0.002200 0.060061 -0.098274 0.106670 0.007697 0.040081 0.069352 -0.090828 0.226672 -0.072857 0.090064 0.124557 -0.234153 0.024290
- 0.052000 0.017193 -0.133037 0.246634 -0.021014 0.110515 0.099231 -0.025277 0.048614 0.110003 -0.071982 0.028905 -0.024096 -0.135946 -0.040034 0.219101 -0.211749 0.002367 0.285970 -0.156283 -0.129954 0.024028 -0.218690 -0.082354 -0.048642 -0.130100 -0.020153 0.306014 -0.046055 0.040366 -0.048709 -0.158722 0.027807 -0.185106 0.022270 -0.099698 -0.133154 -0.238503 0.108840 0.143633 0.347284 0.239648 -0.014884 0.236751 0.048924 -0.023736 0.084964 0.231989 -0.047522 0.127514 -0.009141 0.086559 -0.051952 -0.299156 0.288825 0.479335 0.108263 0.045082 -0.227505 -0.343182 -0.104962 -0.210750 0.051773 -0.050470 -0.152595 0.042072 -0.377013 -0.222218 -0.169152 -0.087237 0.054245 0.186085 0.156694 0.314289 -0.220496 0.035257 -0.038130 -0.099323 0.402448 -0.065511 -0.319659 0.017143 0.275416 0.020157 0.282280 0.092150 0.137348 0.102850 -0.109117 0.192303 -0.079875 0.181239 -0.002438 -0.197771 0.268652 -0.144114 0.148331 0.201094 -0.157484 -0.046263
w 0.019606 -0.087908 -0.114855 0.080833 -0.004731 -0.047575 0.004896 -0.047078 0.129482 -0.037036 -0.034727 0.074230 -0.068412 -0.091064 -0.041736 0.084046 -0.144540 0.062129 0.147830 -0.070721 -0.182895 0.011886 -0.117070 -0.096774 -0.098702 0.059283 0.000188 0.201832 -0.075991 0.040735 0.015468 -0.125305 0.053036 -0.018324 -0.000103 -0.071065 -0.020158 -0.168940 0.063882 0.004384 0.135913 0.195685 -0.095328 0.148088 -0.122236 0.061599 0.065821 0.174373 0.088245 0.200583 0.002332 0.018940 -0.110577 -0.288720 0.107766 0.447570 0.053324 0.043945 -0.386820 -0.235234 0.028097 -0.174803 0.099529 -0.043275 -0.200522 0.034299 -0.120675 -0.113577 -0.117752 -0.016518 0.038395 0.089706 0.087762 0.170942 -0.059759 -0.006854 0.100654 -0.018336 0.301107 0.009486 -0.225307 -0.029701 0.133777 -0.035820 0.311216 0.029187 -0.005731 0.056574 -0.055583 0.198632 0.034160 0.048524 0.101087 -0.100081 0.199678 -0.078739 0.125969 0.159834 -0.204333 0.055665
b 0.033819 -0.199465 -0.265700 0.173507 -0.000303 -0.029663 0.027638 -0.111491 0.270546 -0.031493 -0.105336 0.157611 -0.105899 -0.156764 -0.060044 0.145567 -0.279780 0.134890 0.287504 -0.123761 -0.328285 -0.027020 -0.202778 -0.117880 -0.184152 0.081445 0.004811 0.312096 -0.110024 0.064518 0.034730 -0.272671 0.075837 -0.043571 0.046629 -0.109943 0.031793 -0.248582 0.104941 -0.014348 0.275307 0.372340 -0.078799 0.247270 -0.213900 0.100217 0.128773 0.305320 0.087910 0.370463 -0.026434 0.052067 -0.142378 -0.467036 0.145582 0.812244 0.113627 0.084039 -0.707731 -0.348809 0.090127 -0.319215 0.191504 -0.065813 -0.335522 0.043376 -0.177140 -0.217869 -0.226903 -0.075742 0.103610 0.128522 0.175748 0.352952 -0.104408 0.027403 0.092515 -0.060362 0.494096 0.045868 -0.386210 -0.043722 0.160998 -0.079563 0.509499 0.051639 -0.005293 0.107591 -0.153571 0.236266 0.053111 0.078707 0.119268 -0.159144 0.380664 -0.115109 0.153191 0.207327 -0.441163 0.047801
y 0.046488 -0.274186 -0.365233 0.238505 -0.000417 -0.040775 0.037992 -0.153257 0.371896 -0.043291 -0.144797 0.216653 -0.145570 -0.215490 -0.082537 0.200098 -0.384588 0.185422 0.395206 -0.170123 -0.451264 -0.037142 -0.278741 -0.162039 -0.253137 0.111956 0.006614 0.429010 -0.151240 0.088687 0.047740 -0.374816 0.104246 -0.059893 0.064097 -0.151128 0.043703 -0.341703 0.144253 -0.019723 0.378440 0.511823 -0.108318 0.339900 -0.294030 0.137760 0.177012 0.419696 0.120842 0.509242 -0.036337 0.071571 -0.195715 -0.641993 0.200119 1.116519 0.156192 0.115520 -0.972854 -0.479476 0.123890 -0.438797 0.263243 -0.090467 -0.461212 0.059626 -0.243498 -0.299485 -0.311903 -0.104116 0.142424 0.176667 0.241585 0.485172 -0.143520 0.037669 0.127172 -0.082974 0.679189 0.063050 -0.530888 -0.060101 0.221310 -0.109369 0.700362 0.070983 -0.007275 0.147896 -0.211101 0.324774 0.073007 0.108192 0.163947 -0.218761 0.523265 -0.158230 0.210578 0.284994 -0.606427 0.065708
( -0.174091 0.522699 0.360716 0.002517 -0.017368 0.423238 -0.150510 -0.160104 0.737561 0.069178 0.127655 0.086049 -0.252853 -0.133176 0.316453 0.047806 -0.356637 -0.112923 -0.380385 0.342000 -0.458405 -0.000435 -0.458546 -0.070182 -0.097489 0.544767 -0.118700 -0.041823 0.405279 -0.138140 0.168369 -0.060548 -0.360618 -0.193822 0.130898 -0.071161 -0.142718 -0.871418 0.132234 0.011521 0.632929 -0.131311 -0.634528 -0.303756 -0.411609 -0.292736 -0.204286 0.202638 -0.027387 0.112613 0.431580 -0.128548 0.063364 -0.468549 -0.163723 0.410746 0.122036 0.273259 -0.337924 -0.245917 -0.809771 -0.594759 0.266255 -0.692287 -0.403599 -0.477247 -0.118029 -0.412466 0.309793 0.326400 -0.641161 0.507485 0.227290 -0.305349 0.341676 -0.279245 0.364216 -0.043485 0.193694 -0.139343 -0.639155 -0.359930 0.174125 -0.065541 0.119348 0.352675 0.574407 0.177105 0.078260 0.291126 -0.093684 0.051393 0.613675 -0.055026 -0.051082 0.027950 0.427280 0.368484 -0.209143 -0.277653
) -0.179506 0.523123 0.361534 -0.004120 -0.022033 0.424730 -0.156257 -0.161446 0.739412 0.075656 0.124850 0.086868 -0.240990 -0.136773 0.323592 0.052019 -0.360498 -0.109332 -0.381151 0.336303 -0.462196 0.007744 -0.467706 -0.068718 -0.079685 0.531828 -0.119195 -0.055463 0.400362 -0.144255 0.159713 -0.052329 -0.353584 -0.208058 0.130302 -0.074510 -0.132129 -0.870697 0.125857 0.007680 0.636003 -0.117270 -0.622532 -0.304342 -0.411376 -0.290368 -0.195650 0.194725 -0.028117 0.108949 0.434120 -0.125708 0.063897 -0.462334 -0.149806 0.410739 0.124759 0.258217 -0.339463 -0.240329 -0.812330 -0.586216 0.270930 -0.692548 -0.400150 -0.473754 -0.115233 -0.422369 0.307420 0.322230 -0.638964 0.503694 0.226974 -0.314705 0.343515 -0.265235 0.368968 -0.041805 0.187477 -0.142734 -0.640688 -0.366112 0.166218 -0.067846 0.127352 0.341216 0.574567 0.174195 0.089697 0.292479 -0.100082 0.036848 0.591321 -0.046416 -0.048452 0.029273 0.419244 0.353787 -0.216059 -0.282807
m 0.039063 -0.109811 -0.158003 0.111802 -0.014066 -0.019171 0.029148 -0.058289 0.146031 -0.013844 -0.046524 0.072315 -0.062877 -0.090318 -0.044413 0.088521 -0.159190 0.073698 0.165575 -0.063631 -0.194349 -0.033353 -0.142225 -0.058398 -0.112980 0.046705 0.029673 0.186989 -0.050765 0.023180 0.017568 -0.161940 0.030413 -0.019363 0.036830 -0.073016 0.025083 -0.139334 0.060688 -0.010918 0.150888 0.222315 -0.044576 0.145063 -0.113961 0.038901 0.056428 0.174316 0.022998 0.227208 -0.007128 0.054828 -0.083595 -0.263117 0.097372 0.480526 0.060564 0.056132 -0.387686 -0.195042 0.037070 -0.187713 0.106042 -0.040954 -0.189329 0.040096 -0.127096 -0.145806 -0.109989 -0.049988 0.071764 0.085695 0.100012 0.202067 -0.067566 0.010961 0.045693 -0.027332 0.276147 0.023005 -0.233204 -0.046700 0.095832 -0.037837 0.288921 0.050296 -0.002861 0.063599 -0.074668 0.128584 0.031629 0.061618 0.074963 -0.087902 0.237630 -0.078983 0.103117 0.114107 -0.240630 0.015018
` 0.073026 0.087272 0.440736 -0.188966 -0.308794 0.101823 -0.174454 0.113247 -0.069162 -0.057802 -0.083716 0.158985 -0.171790 0.049797 -0.188288 -0.013944 0.279755 0.430425 -0.201993 0.481292 0.270396 0.294661 -0.322700 -0.397336 0.131814 0.399941 -0.278358 -0.568656 -0.028187 -0.218668 0.030669 0.389007 0.174257 0.348650 -0.020212 0.204846 0.153116 -0.096813 0.366367 -0.152680 -0.066769 0.458268 -0.326278 -0.210480 -0.293602 -0.189268 0.000160 -0.203527 -0.481530 -0.751320 -0.132271 0.134543 0.199042 0.138452 -0.401908 -1.224788 0.445276 0.229432 0.728434 0.393044 -0.143156 0.728476 -0.611430 -0.490699 0.613594 0.037330 0.506790 0.258346 -0.310736 0.217612 0.295974 -0.193454 0.029072 -0.142536 0.098591 0.061578 0.152196 0.017960 -0.346768 -0.102596 0.314917 -0.351895 -0.275080 0.172100 -1.041340 -0.369188 0.019197 -0.380888 -0.213724 -0.180686 0.099838 0.048454 0.147071 0.022902 -0.045095 -0.284427 0.021179 -0.268968 -0.272106 0.545145
v 0.030555 -0.129574 -0.142565 0.150548 0.005976 -0.014878 0.029200 -0.059037 0.178199 -0.013190 -0.041354 0.083046 -0.084119 -0.107052 -0.056227 0.073980 -0.158577 0.108593 0.160969 -0.058027 -0.229959 -0.022067 -0.138137 -0.009978 -0.114211 0.027298 0.021450 0.207494 -0.025203 0.023212 0.010303 -0.147044 0.014731 -0.033733 0.044093 -0.073256 0.046456 -0.160719 0.055898 -0.008685 0.168931 0.196632 -0.038272 0.136064 -0.110060 0.015257 0.069502 0.150263 0.044659 0.239636 0.017551 0.070498 -0.113693 -0.247359 0.089104 0.461444 0.087662 0.054690 -0.401181 -0.192498 0.055684 -0.197906 0.098034 -0.032837 -0.186870 0.035693 -0.112295 -0.157448 -0.127898 -0.028988 0.088947 0.063724 0.117428 0.223034 -0.047598 -0.004007 0.037807 -0.011123 0.270944 0.020037 -0.235828 -0.046085 0.079644 -0.039963 0.279369 0.028714 -0.025583 0.107664 -0.100955 0.111874 0.038810 0.033063 0.068764 -0.080554 0.202464 -0.059412 0.079520 0.131239 -0.267107 0.012756
u 0.031421 -0.107437 -0.147236 0.127155 -0.009585 0.000622 0.020102 -0.057246 0.164679 -0.016638 -0.062388 0.096578 -0.060360 -0.094987 -0.041862 0.080756 -0.165640 0.076462 0.169014 -0.069590 -0.169126 -0.005919 -0.154239 -0.062369 -0.124681 0.043856 0.016917 0.195742 -0.043182 0.013340 0.010195 -0.186633 0.033900 -0.032735 0.026719 -0.069631 0.018094 -0.157655 0.052116 -0.014419 0.153969 0.212439 -0.041092 0.133518 -0.103129 0.041603 0.064852 0.175120 0.025768 0.227444 -0.027162 0.057237 -0.090679 -0.259141 0.086235 0.480674 0.077699 0.048968 -0.389550 -0.205936 0.038562 -0.185544 0.096786 -0.039392 -0.193289 0.034963 -0.125700 -0.153407 -0.124020 -0.049480 0.078001 0.077532 0.105314 0.206178 -0.062852 0.029733 0.034103 -0.018669 0.286546 0.030089 -0.225150 -0.039570 0.082411 -0.037126 0.281511 0.037140 -0.015410 0.071949 -0.082743 0.114562 0.029020 0.049354 0.068562 -0.091423 0.233725 -0.070592 0.077511 0.115589 -0.250340 0.009395
c 0.044805 -0.087670 -0.143306 0.109831 -0.019160 0.012244 0.022432 -0.060084 0.147304 -0.026489 -0.052144 0.059499 -0.049221 -0.081713 -0.050917 0.106838 -0.136580 0.085416 0.192688 -0.063698 -0.200948 -0.037116 -0.151476 -0.068059 -0.097638 0.022108 0.024314 0.187866 -0.066161 0.004182 0.020477 -0.142880 -0.002115 -0.037490 0.046198 -0.052135 0.008236 -0.169069 0.057719 0.000815 0.154923 0.197117 -0.064235 0.123731 -0.105260 0.037297 0.055499 0.161130 0.001944 0.194490 0.002642 0.061054 -0.105950 -0.245283 0.110391 0.439069 0.090826 0.036795 -0.339635 -0.183994 0.022776 -0.157646 0.095853 -0.038210 -0.165117 0.008885 -0.140305 -0.157170 -0.075373 -0.072138 0.052017 0.081086 0.109326 0.204289 -0.070753 -0.011834 0.047020 -0.030469 0.264143 0.018370 -0.235855 -0.041971 0.083929 0.002226 0.243030 0.044980 0.022546 0.067868 -0.089883 0.106940 -0.008196 0.050973 0.052301 -0.092915 0.239718 -0.086032 0.074491 0.092622 -0.208677 0.041495
l 0.023182 -0.104150 -0.174205 0.107275 -0.006757 -0.003041 0.026770 -0.064313 0.155509 -0.021863 -0.064228 0.079461 -0.068060 -0.093135 -0.036805 0.084190 -0.159662 0.088877 0.176457 -0.070306 -0.193905 -0.013295 -0.118749 -0.063218 -0.090122 0.041245 0.009932 0.177441 -0.062048 0.019252 0.017916 -0.166639 0.032780 -0.032083 0.042609 -0.058960 0.013004 -0.154808 0.058912 0.001626 0.160448 0.203563 -0.052166 0.143632 -0.122578 0.058855 0.079776 0.168965 0.039203 0.219165 -0.006950 0.037748 -0.085800 -0.260765 0.094133 0.450400 0.077552 0.040811 -0.401083 -0.198868 0.051329 -0.172441 0.109175 -0.036222 -0.187237 0.010989 -0.102127 -0.135033 -0.119779 -0.067237 0.056645 0.075543 0.105588 0.203721 -0.050902 0.009951 0.048526 -0.036779 0.288411 0.025557 -0.228436 -0.024670 0.081208 -0.025672 0.288081 0.023372 0.010211 0.061574 -0.101222 0.114306 0.001150 0.041617 0.061302 -0.091217 0.227314 -0.070158 0.075779 0.119957 -0.246668 0.029247
: -0.275940 0.120056 0.088375 0.424932 -0.455564 0.407427 -0.024609 -0.118820 0.052022 0.186309 0.637789 0.111775 -0.000255 0.011419 0.142117 -0.152968 -0.171645 -0.087065 0.033065 -0.216393 -0.120521 0.071268 -0.411875 0.109943 0.044801 0.190357 0.146533 0.426672 0.052221 -0.018066 -0.317136 0.109146 0.066913 -0.556028 -0.286748 -0.401903 0.016907 -0.219408 -0.067526 0.044739 0.628829 -0.154181 -0.399476 0.257397 -0.358959 -0.530065 -0.238588 0.265095 -0.070004 -0.077191 0.076499 0.050917 -0.208008 -0.089987 0.084768 0.318747 -0.414943 0.193357 -0.499538 -0.207984 -0.285813 -0.018430 0.137552 -0.242816 -0.315671 -0.313466 -0.572606 -0.395062 -0.098693 0.011633 -0.444032 0.319650 0.123788 0.090559 0.141016 -0.321197 -0.112801 -0.328341 0.275475 -0.119177 -0.409042 -0.225250 0.124797 -0.280638 0.595031 0.340104 0.128932 0.082051 -0.054064 0.062581 -0.067446 0.358601 0.123349 0.067829 0.050248 -0.099606 0.411985 0.142264 -0.096980 -0.142619
p 0.031914 -0.060576 -0.125131 0.112997 -0.028805 0.027647 0.015153 -0.053146 0.148245 -0.012644 -0.055211 0.067988 -0.041051 -0.074654 -0.049272 0.109936 -0.140964 0.081936 0.214459 -0.068059 -0.187713 -0.031173 -0.171605 -0.061251 -0.090630 0.026136 0.021650 0.198955 -0.071018 -0.005866 0.030750 -0.143578 0.004275 -0.039942 0.051169 -0.047289 -0.009517 -0.173767 0.058572 -0.012699 0.158236 0.209686 -0.052667 0.119483 -0.091031 0.022773 0.058994 0.168613 -0.007208 0.188120 -0.022601 0.076526 -0.094324 -0.211473 0.101467 0.444757 0.097009 0.038395 -0.312804 -0.198825 0.009567 -0.140798 0.077839 -0.027161 -0.153793 0.034043 -0.138623 -0.178699 -0.075078 -0.097852 0.052694 0.076190 0.112695 0.205322 -0.092101 0.008508 0.039232 -0.021479 0.271720 0.011078 -0.237820 -0.047697 0.085229 0.001033 0.225852 0.044550 0.032589 0.070148 -0.086009 0.114387 -0.018100 0.069653 0.048132 -0.106125 0.241346 -0.100138 0.077973 0.096928 -0.189855 0.038997
g 0.035773 -0.117586 -0.141797 0.121109 -0.000010 0.008504 -0.014265 -0.062609 0.151763 -0.012631 -0.060872 0.077715 -0.059409 -0.105098 -0.040806 0.081088 -0.158141 0.069529 0.187678 -0.083466 -0.188840 -0.000051 -0.124324 -0.064023 -0.114667 0.047085 0.000836 0.200652 -0.061662 0.012331 -0.004348 -0.176028 0.045643 -0.047109 0.007346 -0.088617 -0.000425 -0.164433 0.049493 -0.010510 0.135017 0.211837 -0.046841 0.137718 -0.119678 0.067723 0.073495 0.156743 0.036222 0.190096 -0.008684 0.042840 -0.099583 -0.226307 0.084527 0.453899 0.082757 0.044777 -0.373583 -0.194456 0.034291 -0.160179 0.105029 -0.013266 -0.198942 0.043999 -0.112989 -0.128940 -0.111545 -0.053930 0.048027 0.073518 0.100083 0.194236 -0.078659 0.029263 0.044157 -0.032107 0.276146 0.023198 -0.211978 -0.012657 0.080027 -0.017623 0.256404 0.034033 -0.015756 0.066739 -0.099181 0.110386 0.020154 0.045611 0.067240 -0.093739 0.232251 -0.095623 0.070496 0.124927 -0.214741 0.042373
$ 0.309911 0.327562 -0.218995 0.752102 0.233142 0.293675 0.166689 0.227902 0.045120 0.087512 0.367713 0.371571 -0.341169 -0.497693 0.138891 -0.552373 -0.310190 0.082534 0.360764 0.237282 0.001100 -0.315520 -0.159874 -0.069105 -0.077182 -0.097927 0.456352 0.412869 0.043961 -0.507458 -0.119357 0.053040 0.430397 -0.054426 -0.035562 0.188129 -0.222947 0.009373 -0.496152 0.559738 0.476382 -0.225453 -0.187300 -0.046976 0.102582 -0.076465 0.205953 -0.263888 -0.365157 0.022144 0.184946 -0.094330 -0.175107 0.086772 -0.522076 0.394400 -0.176187 -0.267779 -0.122085 -0.151242 0.451987 -0.120383 -0.612589 0.055369 -0.301738 -0.165261 -0.439071 0.230079 0.430560 -0.031608 -0.122546 0.192259 -0.127313 0.980834 -0.065649 0.134083 0.110543 0.262340 0.112513 0.358813 -0.164201 0.151291 0.310034 -0.307957 0.652241 0.555185 0.396363 0.119127 0.059990 0.220039 0.095522 0.424253 0.241573 -0.923477 0.232174 -0.361869 0.459248 0.459324 0.336933 -0.398912
; 0.098239 0.240253 -0.098084 0.056554 -0.170514 0.080557 -0.078369 -0.077716 0.077908 0.038377 0.295246 0.187093 -0.184353 -0.059760 -0.267680 0.018607 -0.046352 -0.095192 0.130046 0.136023 -0.000996 -0.172723 -0.140106 0.130067 -0.172320 0.324919 0.129842 0.145645 -0.169207 -0.228878 0.181942 0.103957 -0.117886 0.011960 -0.021722 0.108397 -0.141366 0.036544 0.065851 0.155943 0.262426 -0.096804 -0.318752 -0.088499 -0.295040 0.107429 -0.250621 0.121694 0.330816 -0.197296 0.135760 0.030046 0.008678 -0.197950 0.000055 0.210259 0.017980 0.081370 0.049958 -0.169084 -0.151128 -0.175328 -0.100973 -0.297704 -0.029097 0.014697 -0.151759 0.028433 0.105213 -0.073197 -0.224450 0.297548 -0.237696 0.252862 -0.072370 -0.067684 0.085879 -0.076735 0.173903 -0.189438 -0.190987 -0.113008 0.148764 -0.152060 0.188972 0.082602 0.147204 -0.291040 -0.125179 0.151417 -0.130234 0.079043 0.083251 -0.113615 0.014087 0.026351 0.223621 0.063627 -0.101799 -0.019907
_ -0.138929 0.186397 0.136709 0.115968 -0.077390 0.149608 -0.148808 0.034982 -0.080386 -0.078020 0.084626 -0.056578 -0.070211 0.074191 -0.150277 0.142145 -0.064194 0.114004 0.083943 -0.012865 -0.171187 -0.093863 -0.208518 -0.052885 -0.061121 0.022434 0.040726 0.044719 0.044176 -0.147599 0.049474 0.061909 0.078355 -0.001396 0.021732 -0.022243 -0.157322 -0.093299 0.054065 -0.051026 0.200716 -0.004580 -0.046010 -0.061195 -0.022375 0.034428 -0.179248 0.128498 -0.062169 0.151042 0.215160 0.140010 -0.023679 -0.194181 0.087039 0.323472 0.003582 0.082827 -0.158573 -0.191731 -0.127954 -0.129773 -0.111518 -0.179980 0.019975 0.119146 -0.043049 -0.109906 -0.036892 0.102781 -0.074859 0.105897 0.102651 0.052815 0.154814 -0.069112 0.126175 -0.084643 0.055290 -0.112961 -0.152131 -0.125683 -0.042199 -0.191709 0.261260 0.044996 -0.066102 -0.005600 0.043182 -0.025195 -0.114580 0.260924 0.033349 -0.099317 0.117752 -0.169380 0.262935 0.069158 -0.105168 0.057422
k 0.020272 -0.155436 -0.165117 0.100831 0.009123 -0.083999 0.010259 -0.072167 0.168326 -0.028727 -0.051576 0.097212 -0.088016 -0.076173 -0.052210 0.082364 -0.182086 0.085780 0.129814 -0.086005 -0.199595 0.006678 -0.121418 -0.037638 -0.149046 0.064665 0.009991 0.215010 -0.037490 0.050746 0.002987 -0.150438 0.066345 -0.011589 0.026250 -0.111755 0.053574 -0.130087 0.073104 -0.031964 0.154230 0.209952 -0.034935 0.174589 -0.146619 0.047621 0.061015 0.168341 0.083759 0.264267 -0.000222 0.022518 -0.106936 -0.311381 0.094546 0.520794 0.035172 0.075394 -0.461091 -0.190150 0.083579 -0.224142 0.124508 -0.019833 -0.230006 0.053380 -0.104739 -0.088020 -0.167395 0.013731 0.063645 0.095803 0.102038 0.227738 -0.050407 0.035988 0.047199 -0.011911 0.323131 0.052211 -0.224624 -0.043531 0.105165 -0.110022 0.366456 0.031189 -0.049838 0.085777 -0.066747 0.185408 0.099620 0.035007 0.106580 -0.091386 0.214060 -0.052456 0.113826 0.177166 -0.295758 0.012285
j 0.025587 -0.177082 -0.168465 0.121828 0.013262 -0.052911 0.018584 -0.051622 0.177488 -0.038807 -0.017944 0.077760 -0.079863 -0.076097 -0.052333 0.061551 -0.192547 0.054203 0.120345 -0.052276 -0.193539 -0.004403 -0.140608 -0.013492 -0.182886 0.062159 0.029469 0.176011 -0.016576 0.031066 -0.005122 -0.173407 0.079988 -0.008437 0.012380 -0.135582 0.069444 -0.107179 0.049645 -0.017650 0.140305 0.225266 -0.000575 0.130824 -0.121711 0.016454 0.017575 0.177349 0.066007 0.255730 -0.012394 0.068384 -0.116505 -0.306365 0.087972 0.553912 0.010292 0.122362 -0.462732 -0.208225 0.066586 -0.223318 0.121643 -0.049716 -0.239862 0.065836 -0.112025 -0.094044 -0.163379 0.059602 0.102472 0.103739 0.081531 0.185472 -0.051332 0.041460 0.044064 -0.018956 0.327347 0.024817 -0.235652 -0.083166 0.095687 -0.111678 0.362737 0.056550 -0.087294 0.095380 -0.035828 0.157495 0.111605 0.045878 0.090682 -0.078020 0.222369 -0.034098 0.117190 0.124904 -0.305246 -0.066158
1 0.235494 0.063704 -0.008172 0.273756 -0.129503 0.169350 0.098423 -0.035233 0.055184 0.025747 0.254525 0.103913 -0.191532 -0.138630 0.170082 0.054200 -0.254792 -0.126213 0.106207 -0.067629 -0.019000 0.078912 -0.127250 0.000981 0.013649 -0.155732 0.069851 0.337081 0.115102 -0.080169 0.023145 -0.170859 0.053828 -0.165035 -0.173730 -0.018706 -0.118363 -0.258886 0.010368 0.206199 0.301145 0.076158 -0.192389 0.106250 -0.083423 -0.125537 0.014934 0.137696 -0.137295 -0.028925 0.081843 -0.058910 0.033999 -0.217177 0.065031 0.505423 -0.023014 -0.044535 -0.316276 -0.349742 -0.109209 -0.142864 -0.022685 0.035898 -0.469114 -0.005802 -0.348245 -0.298325 -0.076602 -0.016789 0.010872 0.193740 -0.017561 0.274128 -0.238602 -0.055332 -0.070657 0.011633 0.276336 0.017996 -0.379764 -0.052916 0.248627 0.010248 0.395015 0.265490 0.231139 0.173790 -0.118324 0.285086 -0.098437 0.313222 0.083499 -0.240212 0.097074 -0.115334 0.113819 0.275401 -0.129469 -0.241973
x 0.068876 -0.049509 -0.090009 0.124783 -0.005888 0.000678 0.033197 -0.051872 0.166527 -0.027360 -0.010090 0.046907 -0.057624 -0.125070 -0.073277 0.097214 -0.133072 0.076606 0.218489 -0.074809 -0.180907 -0.093842 -0.201469 -0.005285 -0.099394 0.063305 0.064856 0.208628 -0.069845 0.012844 0.022895 -0.112185 -0.022644 -0.034086 0.057071 -0.050241 0.023436 -0.176158 0.052493 -0.015977 0.201808 0.192854 -0.081995 0.100374 -0.100532 0.044318 0.031258 0.181939 0.028660 0.181208 -0.029332 0.126269 -0.100359 -0.248082 0.093246 0.460511 0.104696 0.051424 -0.307682 -0.219319 0.005189 -0.170538 0.090724 -0.039315 -0.156098 0.027460 -0.150499 -0.175852 -0.100925 -0.068225 0.057396 0.052568 0.109448 0.246428 -0.081227 0.009399 0.089301 -0.037343 0.255788 -0.028639 -0.220521 -0.043142 0.101175 0.014537 0.239266 0.064487 0.026435 0.052312 -0.058190 0.142820 0.002100 0.100964 0.063144 -0.104056 0.252937 -0.126260 0.058482 0.090235 -0.185414 0.011581
? 0.001127 0.200306 0.199534 -0.185312 -0.637369 0.073844 0.406291 -0.239621 0.527487 -0.135751 0.227268 0.315983 -0.215231 -0.058205 0.145364 0.123243 -0.282192 0.414148 0.058444 0.197153 -0.357236 0.112171 -0.371127 -0.169950 0.023091 0.349473 -0.099280 0.148889 0.153969 -0.240343 0.024473 0.006136 0.481651 -0.290856 -0.147388 0.121725 -0.240309 -0.161934 0.078036 -0.081533 0.403079 0.046207 0.019814 -0.058767 -0.275855 -0.491392 -0.103847 -0.005715 -0.175451 0.172188 -0.171057 0.006315 -0.490212 -0.073637 -0.173746 0.557719 0.494653 0.161616 -0.328556 -0.333505 -0.280843 0.006670 -0.067856 -0.432310 0.048652 0.127427 -0.207914 -0.199033 -0.149660 -0.015693 0.115152 0.127814 0.172358 0.436808 -0.264264 -0.063889 0.243863 -0.039488 0.244498 -0.039617 -0.208456 -0.278051 -0.036228 -0.127962 0.371319 -0.010622 0.104444 -0.066581 -0.257483 0.240625 -0.105846 0.158100 0.201200 -0.189516 0.188161 -0.054560 0.319634 0.100613 -0.345267 -0.023901
0 0.231324 0.173262 -0.068577 0.293617 -0.147175 0.143638 0.116314 0.059205 0.059496 0.102163 0.265911 0.136015 -0.137538 -0.241282 0.111234 0.030063 -0.243565 -0.107587 0.202391 -0.054792 0.081077 0.010212 -0.144559 -0.015482 0.058109 -0.228558 0.050208 0.231277 0.091557 -0.095309 0.050269 -0.170689 0.043714 -0.156241 -0.102622 -0.059989 -0.132566 -0.172235 0.026497 0.199801 0.290892 0.061603 -0.166212 0.118048 -0.062971 -0.054104 0.000462 0.094495 -0.119946 0.014582 0.100641 -0.137805 -0.022063 -0.238713 0.086564 0.562586 0.038918 -0.067485 -0.252178 -0.396475 -0.001757 -0.095622 0.000161 0.002302 -0.424590 0.000419 -0.340840 -0.236953 -0.018116 -0.112550 0.080052 0.193813 -0.065439 0.282944 -0.174214 -0.004442 -0.005815 0.000032 0.278873 0.056413 -0.294890 -0.100364 0.262824 -0.020648 0.365865 0.260007 0.243190 0.231052 -0.071968 0.240307 -0.039589 0.394255 0.072859 -0.365617 0.086870 -0.156689 0.109348 0.304538 -0.081651 -0.144058
2 0.227292 0.119851 0.005228 0.272873 -0.105681 0.170440 0.103662 -0.007090 0.068239 0.038922 0.244483 0.125384 -0.186704 -0.156355 0.149043 0.052568 -0.275513 -0.107506 0.115963 -0.011449 -0.005838 0.062930 -0.122765 -0.009453 0.014465 -0.155433 0.104380 0.348770 0.107359 -0.081001 0.028986 -0.171470 0.064159 -0.155264 -0.110697 -0.016212 -0.101178 -0.248660 0.005051 0.257356 0.331457 0.047527 -0.180674 0.083896 -0.083368 -0.088265 -0.035853 0.145994 -0.183544 -0.034326 0.077546 -0.099329 -0.000941 -0.220411 0.075237 0.516004 0.009483 -0.031806 -0.314734 -0.375269 -0.089040 -0.200757 -0.018653 0.013102 -0.491872 0.039755 -0.347320 -0.270880 -0.069658 -0.025722 0.004538 0.232796 -0.005398 0.287113 -0.226694 -0.017425 -0.080047 -0.011457 0.302998 0.039210 -0.367435 -0.052257 0.256183 0.004166 0.391686 0.263729 0.274289 0.194879 -0.091760 0.302840 -0.087584 0.325438 0.087657 -0.322975 0.095337 -0.120502 0.131002 0.255820 -0.129536 -0.223392
q 0.051965 -0.131239 -0.142933 0.131246 -0.000834 0.011834 0.041023 -0.030027 0.179304 0.020444 -0.034339 0.085319 -0.038145 -0.122905 -0.057297 0.087267 -0.177873 0.041336 0.170945 -0.092292 -0.148683 0.006090 -0.187913 -0.072381 -0.141007 0.025159 0.011865 0.188625 -0.062986 0.001757 0.006418 -0.222999 0.039594 -0.038554 0.039919 -0.073082 -0.008620 -0.134645 0.047686 -0.007232 0.189594 0.187862 -0.045918 0.082720 -0.072376 0.036321 0.014290 0.182089 0.027201 0.209351 -0.072371 0.095354 -0.091726 -0.258835 0.058638 0.492309 0.096297 0.073643 -0.361343 -0.201678 0.009053 -0.203888 0.102377 -0.086350 -0.194501 0.060135 -0.156662 -0.193530 -0.158112 -0.015205 0.101513 0.125395 0.089584 0.183673 -0.053149 0.009554 0.060807 -0.059148 0.273106 0.024165 -0.215164 -0.072188 0.098337 -0.062053 0.278368 0.056303 -0.009264 0.068216 -0.027542 0.145835 0.028764 0.070871 0.066284 -0.100653 0.225293 -0.045859 0.078954 0.069387 -0.239082 0.002858
% -0.077053 1.562200 0.690680 -0.014616 -0.114470 0.008140 0.127050 0.420120 0.207360 1.131700 0.658280 0.147010 -0.704890 0.041337 1.332700 -1.295300 -0.043816 -0.517240 -0.454780 1.365400 -0.144690 0.452280 0.671560 0.642200 -0.275070 -0.960880 1.003600 -0.057320 -0.081076 -0.850170 0.346710 1.109500 -0.053428 -0.757090 0.812490 0.368870 1.826200 1.025400 -0.060735 1.215400 -0.507450 -0.749630 -0.465570 0.361870 0.169760 -0.978000 -0.157780 -0.482150 -1.369500 -1.601700 -0.650730 -0.699770 0.049476 0.246400 -0.715860 -1.458700 -0.714480 -1.032100 1.606100 -0.080424 0.278460 -0.508410 -0.779300 0.234080 0.682010 0.634630 -0.088752 -1.352300 1.458100 0.476150 -1.218400 0.624540 0.171190 0.566190 0.032283 0.121440 -0.747930 -0.376460 -0.665780 -1.274800 -0.600060 0.165550 -0.439040 0.894990 -0.547560 -0.460440 0.443760 -0.301480 1.063400 0.498600 -0.391250 -0.763470 0.099657 0.518550 -1.308300 -0.055195 -0.880030 -0.323930 0.370640 -1.326400
/ -0.064801 0.198334 0.043906 0.230967 -0.103379 -0.035240 0.094087 -0.031398 0.003933 -0.039115 0.267934 -0.004408 -0.147837 -0.078370 -0.113112 0.249563 -0.148452 0.033391 0.174398 0.092956 -0.171840 0.048938 -0.283552 -0.045467 -0.115871 0.065194 0.048006 0.238087 0.012787 -0.041335 -0.016854 -0.050432 0.015705 -0.106286 -0.026710 -0.106227 -0.156246 -0.188142 0.007448 0.126619 0.269483 0.117171 -0.152763 0.090124 0.012661 -0.076611 -0.267341 0.142474 0.019811 0.014445 0.177005 0.049022 -0.221661 -0.174632 0.088315 0.445817 0.044776 0.133383 -0.283224 -0.341511 -0.090188 -0.194395 -0.101804 -0.238472 -0.209816 0.073845 -0.311392 -0.239161 -0.009568 0.063574 0.008504 0.190120 0.041344 0.191510 -0.104074 -0.142819 0.123008 0.029904 0.305760 -0.231449 -0.374447 -0.181454 0.171337 -0.042567 0.374939 0.144740 0.008321 0.072562 -0.032881 0.300598 0.002580 0.314141 0.066672 -0.217014 0.256458 -0.121401 0.260702 0.198245 -0.172495 -0.113958
3 0.240639 0.125329 -0.017077 0.277641 -0.101155 0.191970 0.097274 -0.033639 0.085809 0.043753 0.239990 0.139159 -0.209808 -0.163120 0.162335 0.031848 -0.280782 -0.114995 0.115773 0.020768 0.011399 0.064193 -0.133982 -0.023774 0.019493 -0.167449 0.109980 0.356738 0.122644 -0.091706 0.048125 -0.180172 0.052215 -0.145131 -0.122359 -0.010620 -0.094454 -0.274915 0.002085 0.269071 0.336318 0.041812 -0.176578 0.065513 -0.096363 -0.083342 -0.057061 0.168632 -0.190468 -0.052968 0.082954 -0.107226 -0.005388 -0.211953 0.088266 0.537456 -0.001762 -0.034077 -0.310530 -0.371396 -0.077286 -0.227834 -0.004914 0.014450 -0.516441 0.037264 -0.343907 -0.264416 -0.082556 -0.008661 -0.012295 0.231344 0.003701 0.291496 -0.223512 -0.007948 -0.090343 -0.026621 0.323449 0.058502 -0.383598 -0.035949 0.254855 0.005307 0.390767 0.249213 0.300263 0.207382 -0.107670 0.308387 -0.088688 0.305855 0.096552 -0.330265 0.085502 -0.114300 0.108893 0.250747 -0.139770 -0.219318
5 0.240447 0.118449 -0.037491 0.302086 -0.095619 0.179833 0.086738 -0.008011 0.062911 0.065596 0.238783 0.154594 -0.250961 -0.165167 0.166559 0.015876 -0.267322 -0.146112 0.116656 0.002082 0.006731 0.051696 -0.149777 -0.032449 0.037874 -0.143349 0.097852 0.328077 0.125471 -0.087175 0.045816 -0.180279 0.060864 -0.160763 -0.091792 -0.010092 -0.099303 -0.263137 0.025717 0.254349 0.338394 0.040970 -0.172437 0.071713 -0.124883 -0.086439 -0.052540 0.156252 -0.209248 -0.051001 0.083961 -0.129403 0.019587 -0.198232 0.064665 0.520723 -0.024557 -0.054445 -0.294065 -0.384467 -0.053304 -0.216320 -0.032937 -0.008779 -0.529746 0.025151 -0.347820 -0.241077 -0.068999 -0.040435 -0.008688 0.240698 0.006771 0.300607 -0.227482 -0.028620 -0.073160 -0.031453 0.323792 0.053905 -0.378208 -0.045391 0.266865 -0.013351 0.410408 0.262931 0.291384 0.234880 -0.087422 0.298666 -0.086769 0.321785 0.100985 -0.325430 0.075228 -0.120591 0.122321 0.285784 -0.140768 -0.218083
4 0.250141 0.116287 -0.027223 0.279151 -0.102802 0.189513 0.094581 -0.028296 0.099200 0.041495 0.239023 0.143024 -0.231582 -0.153717 0.151338 0.031894 -0.279434 -0.126348 0.115419 -0.001793 0.002868 0.072069 -0.144841 -0.028644 0.017624 -0.163386 0.107089 0.356414 0.130261 -0.096563 0.041678 -0.188180 0.055225 -0.158871 -0.111743 -0.015419 -0.101703 -0.276466 0.005996 0.266486 0.332939 0.044715 -0.182024 0.076111 -0.104329 -0.095875 -0.050564 0.179542 -0.194964 -0.055749 0.079279 -0.102823 -0.000861 -0.207827 0.090010 0.524042 -0.015873 -0.034976 -0.310659 -0.366974 -0.075667 -0.222768 -0.006646 0.003619 -0.517765 0.036564 -0.345516 -0.264421 -0.080958 -0.010133 -0.017369 0.240612 0.011018 0.296644 -0.225531 -0.008025 -0.092260 -0.032112 0.339713 0.049009 -0.384469 -0.037128 0.250575 0.014889 0.400825 0.254434 0.297584 0.211360 -0.101583 0.303992 -0.089271 0.302679 0.095116 -0.305055 0.093884 -0.116249 0.109948 0.258045 -0.153968 -0.220054
8 0.238222 0.088563 -0.009666 0.273865 -0.097496 0.158380 0.099164 -0.043181 0.097881 0.040128 0.233324 0.127409 -0.239989 -0.170680 0.202590 0.017981 -0.250956 -0.127089 0.082551 -0.012330 -0.011991 0.082647 -0.136080 -0.045037 0.019396 -0.154167 0.109365 0.331452 0.140017 -0.086286 0.059285 -0.177479 0.053097 -0.137177 -0.152492 -0.003351 -0.110968 -0.277609 -0.000574 0.232435 0.300617 0.058902 -0.205383 0.072262 -0.097714 -0.097655 -0.027492 0.153432 -0.191714 -0.069408 0.093604 -0.110308 0.057896 -0.222794 0.073219 0.524293 -0.028709 -0.065856 -0.311283 -0.348173 -0.073749 -0.201759 -0.028019 0.039855 -0.529822 -0.016215 -0.317527 -0.304782 -0.084457 -0.010830 -0.007098 0.215177 -0.012210 0.286918 -0.228714 -0.008319 -0.078604 0.016118 0.310563 0.034603 -0.391679 -0.028231 0.271701 0.027907 0.416210 0.268034 0.271240 0.240477 -0.100839 0.282337 -0.098332 0.304189 0.093979 -0.285071 0.097147 -0.137444 0.072079 0.282272 -0.142826 -0.245365
6 0.249884 0.107769 -0.012964 0.275795 -0.086847 0.165621 0.105518 -0.035083 0.103654 0.038905 0.222282 0.145162 -0.245780 -0.157088 0.180799 0.027041 -0.267666 -0.120909 0.096276 0.011109 0.003057 0.072072 -0.138524 -0.044098 0.023995 -0.168847 0.113777 0.333975 0.147993 -0.095227 0.049648 -0.184254 0.054549 -0.148932 -0.122122 0.004618 -0.109479 -0.290597 0.015682 0.269791 0.317370 0.048034 -0.169149 0.067054 -0.096108 -0.090038 -0.063987 0.180272 -0.202937 -0.054531 0.086441 -0.115483 0.033353 -0.218430 0.075212 0.532058 -0.006204 -0.052331 -0.312799 -0.374657 -0.068913 -0.209895 -0.026378 0.015277 -0.538363 0.034025 -0.340450 -0.266125 -0.078602 -0.010919 -0.005869 0.249622 0.004896 0.298460 -0.240065 -0.013382 -0.072390 0.001493 0.326307 0.057042 -0.390281 -0.035601 0.258902 0.022512 0.415990 0.273266 0.303266 0.221093 -0.102188 0.298296 -0.095534 0.308755 0.088117 -0.312023 0.089843 -0.123748 0.096580 0.275396 -0.157429 -0.227899
7 0.239603 0.097600 -0.002855 0.274436 -0.075098 0.155342 0.104482 -0.047363 0.089984 0.043068 0.214431 0.139775 -0.242563 -0.150940 0.188176 0.017631 -0.260848 -0.119844 0.089405 0.004195 0.010545 0.073367 -0.133943 -0.040556 0.030788 -0.149543 0.117108 0.332782 0.142033 -0.090608 0.050894 -0.169553 0.055905 -0.136078 -0.133072 0.008165 -0.108718 -0.296513 0.011713 0.255832 0.309671 0.043337 -0.171941 0.074952 -0.101050 -0.084386 -0.065655 0.171231 -0.212802 -0.060051 0.083463 -0.115636 0.037111 -0.213755 0.079211 0.536185 -0.018993 -0.059676 -0.310308 -0.373593 -0.077830 -0.216801 -0.013036 0.010312 -0.543239 0.010844 -0.332820 -0.265678 -0.087108 0.001185 -0.009486 0.236372 -0.001923 0.302399 -0.231698 -0.021185 -0.058190 0.002945 0.310234 0.067014 -0.384451 -0.040277 0.267585 0.031691 0.417878 0.259932 0.300613 0.224097 -0.100254 0.294854 -0.103482 0.298717 0.091823 -0.317251 0.081970 -0.113842 0.094812 0.284472 -0.160099 -0.234142
9 0.229866 0.081252 0.010954 0.242020 -0.110312 0.156293 0.095628 -0.015881 0.113191 0.033701 0.238831 0.073801 -0.210436 -0.107321 0.206829 0.018300 -0.251463 -0.169307 0.094577 -0.028677 -0.067361 0.091590 -0.147432 -0.040675 -0.005574 -0.117569 0.061394 0.287284 0.129355 -0.123537 0.067743 -0.178094 0.056717 -0.183547 -0.170039 0.029669 -0.099027 -0.265626 -0.008630 0.188150 0.275216 0.067658 -0.198201 0.127787 -0.094167 -0.112986 0.023424 0.112946 -0.181496 -0.072888 0.093334 -0.093439 0.028469 -0.219118 0.111382 0.536623 -0.041634 -0.032589 -0.331331 -0.329775 -0.113690 -0.169807 -0.044836 0.012726 -0.455348 -0.028158 -0.323232 -0.351328 -0.084387 0.021243 0.035236 0.243212 -0.040668 0.328400 -0.275716 -0.035329 -0.084526 0.055594 0.249813 0.033949 -0.448100 -0.045566 0.271567 0.034303 0.398869 0.305606 0.208596 0.206630 -0.102934 0.282523 -0.099275 0.290867 0.103556 -0.228821 0.096923 -0.127458 0.097084 0.321108 -0.183562 -0.282935
& 0.333148 -0.126857 -0.133723 0.104870 -0.065406 -0.146644 0.031400 0.006880 0.168989 -0.109589 0.359557 -0.049657 -0.020583 -0.032176 -0.305719 0.147769 0.054798 -0.130341 0.297193 -0.214998 -0.170877 -0.167494 -0.242523 -0.158003 -0.287029 -0.121576 0.037212 0.230750 -0.094304 0.070087 0.030717 0.188838 -0.036094 -0.042271 -0.116078 -0.114002 -0.045450 -0.248675 0.143106 0.074043 0.272397 0.164727 -0.206936 0.179494 -0.014542 0.057547 0.028532 0.238013 0.199698 0.263068 0.020674 0.347566 -0.061960 -0.393176 0.186326 0.588242 0.034996 0.150965 -0.270545 -0.300871 0.072613 -0.299099 -0.025897 0.106325 -0.044512 0.009041 -0.413028 -0.139551 0.054646 0.099142 -0.011527 0.189045 0.031871 0.207671 -0.074382 -0.138363 0.128740 0.054998 0.354899 -0.063443 -0.410989 -0.180322 0.352366 0.143262 0.243351 0.089980 -0.018475 -0.027547 0.037683 0.427557 -0.007790 0.146845 -0.049234 -0.161162 0.175477 -0.268389 0.033521 0.324131 -0.067638 -0.003415
z 0.023218 -0.179427 -0.182908 0.120655 0.039531 -0.061490 0.026637 -0.077140 0.194184 -0.017120 -0.041275 0.088373 -0.092047 -0.116887 -0.020706 0.081068 -0.196989 0.098791 0.126490 -0.065458 -0.215527 -0.000047 -0.129474 -0.009767 -0.191532 0.058292 0.023816 0.186801 -0.009003 0.036428 0.018863 -0.160004 0.044285 -0.011380 0.010033 -0.116333 0.093005 -0.152922 0.043612 -0.005694 0.152151 0.193770 -0.013749 0.153905 -0.137530 0.027935 0.049825 0.155162 0.065858 0.248167 0.009111 0.040607 -0.130130 -0.297055 0.078268 0.557582 0.034514 0.108896 -0.480668 -0.179912 0.094848 -0.226991 0.155833 -0.073632 -0.222917 0.043624 -0.099434 -0.098131 -0.170686 0.008903 0.125354 0.090102 0.097319 0.217453 -0.015037 0.024285 0.030393 -0.034778 0.313086 0.070055 -0.210576 -0.049584 0.056779 -0.101178 0.358187 0.042311 -0.055124 0.095216 -0.084454 0.128516 0.116319 0.023417 0.106428 -0.104348 0.235837 -0.049848 0.103862 0.130456 -0.325395 0.002811
! 0.178299 0.276037 0.146701 -0.357498 -0.431153 -0.004230 0.387889 0.124132 0.344624 -0.062314 0.698133 0.420118 -0.331566 -0.066367 0.110216 -0.025785 -0.319230 0.389339 -0.187604 0.500760 0.023302 0.291548 -0.601343 -0.201805 0.076784 0.649718 -0.247606 0.594233 0.453846 -0.085759 0.034188 -0.179358 0.409116 0.146666 0.400117 -0.094696 0.104176 -0.528465 0.243839 -0.825694 0.563442 0.478089 -0.081794 0.119555 -0.356233 -0.155544 -0.003690 0.073957 -0.331500 0.106035 -0.234950 0.090443 0.057216 -0.003860 -0.177759 0.309521 0.556832 0.461859 -0.136530 -0.497981 -0.004976 0.219380 -0.616437 -0.373004 0.088929 0.145856 -0.120016 -0.031313 0.174452 0.057923 0.541891 0.031342 0.408168 0.348002 0.065612 -0.212003 0.086085 0.037068 0.174939 -0.185218 -0.380238 -0.311792 0.087692 -0.360451 0.336935 0.135193 0.028524 -0.247504 -0.251155 0.399888 -0.144600 0.084295 0.395354 -0.074331 0.311963 -0.059291 0.270415 0.079463 -0.162679 0.430553
= -0.159607 0.454746 -0.248748 0.140004 -0.326720 0.043705 0.052204 -0.142375 0.002032 -0.190295 0.651147 -0.263274 -0.180615 0.111452 0.076235 0.279020 -0.334593 -0.210458 0.076258 0.165898 0.151614 0.042715 -0.335853 0.222270 0.242403 0.422160 0.170352 0.141617 0.232021 0.081745 -0.104155 0.189054 -0.170382 -0.002780 0.245752 -0.490175 0.268212 0.018172 -0.396150 0.501533 0.620397 -0.044188 0.009482 -0.086405 0.229703 -0.597689 -0.577248 0.402842 0.092149 -0.039689 -0.078625 0.020635 -0.047009 -0.283825 0.151674 -0.202727 0.096612 0.380685 -0.331608 0.016479 -0.319503 -0.621418 -0.689307 -0.285040 0.069731 0.359617 -0.106257 -0.250455 0.101455 0.199426 -0.121247 0.265687 -0.122139 0.210504 0.601682 0.064088 0.061966 -0.087402 0.026050 -0.062706 -0.623250 -0.565068 0.207005 -0.885820 0.551082 0.495685 0.021665 -0.038654 0.402142 0.609079 -0.652917 0.307040 0.272162 -0.170775 0.405310 0.007057 0.308007 -0.001884 -0.431430 -0.602482
# -0.228220 0.403029 0.091184 0.143304 -0.221735 0.119783 -0.123965 -0.164587 -0.033608 0.184300 0.371356 -0.117163 -0.017177 0.038238 -0.000558 0.315037 -0.096933 -0.143321 0.177596 0.026828 0.017998 0.113887 -0.364318 -0.121522 -0.010786 0.284696 0.133588 0.187075 0.126223 -0.016330 -0.052838 -0.029666 -0.266209 -0.116153 -0.037891 -0.177275 -0.115417 -0.465139 -0.105603 0.030048 0.343330 -0.342255 -0.046192 0.070157 -0.090529 -0.253816 -0.425743 0.277565 0.167964 -0.163184 0.040719 0.025485 -0.129520 -0.291219 0.071981 0.133233 0.291039 0.373719 -0.139528 -0.186734 -0.308728 -0.109178 -0.434907 -0.243721 0.150812 -0.004785 -0.333240 -0.211195 -0.122423 0.055112 -0.148129 0.415114 0.040331 0.343773 0.264041 -0.139723 0.210505 -0.155885 0.455841 -0.233049 -0.387952 -0.189342 0.213811 -0.293568 0.246487 -0.004330 -0.125471 -0.306201 0.093916 0.298514 -0.217978 0.240321 0.231268 -0.020405 0.102782 0.016479 0.175287 0.038095 -0.156909 -0.074911
[ -0.204895 0.226933 -0.018675 -0.079944 -0.088882 0.167819 0.163790 -0.138272 0.045051 -0.056889 0.399195 -0.167560 0.063669 0.057330 -0.072107 0.097589 -0.038190 0.179385 -0.192470 0.291780 -0.073611 0.021475 -0.268185 -0.133572 -0.210968 0.002665 0.292060 0.122969 0.385505 0.078402 0.334260 0.463834 0.289715 0.106722 -0.168724 -0.002253 -0.086128 0.066460 -0.106783 0.098250 0.142290 -0.045975 -0.341430 -0.159468 -0.157774 -0.125680 -0.181235 0.150879 -0.011480 -0.214761 0.302660 0.241590 0.120473 0.081540 -0.373962 -0.584630 0.054486 -0.174900 0.649580 -0.096654 -0.112470 0.257987 -0.451120 -0.300385 0.499030 0.114675 -0.155706 0.102335 0.119475 0.034270 0.030788 0.436140 0.006492 -0.053588 0.265483 0.064590 0.173315 0.022320 -0.205242 -0.315745 -0.192789 -0.278012 -0.062190 -0.270210 -0.243976 0.323856 -0.110244 -0.258695 -0.008945 0.200737 -0.319925 0.201466 0.160585 0.125465 0.277185 -0.047145 -0.047210 -0.031485 0.110691 -0.160458
+ -0.096063 0.197628 0.057190 0.192053 -0.184124 0.064404 0.078572 0.072444 0.019427 0.050005 0.318764 -0.049664 -0.294588 -0.010572 -0.131370 0.075669 -0.300035 -0.095672 0.157938 0.074149 -0.134888 0.078798 -0.202251 -0.099259 -0.158064 0.230508 0.097083 0.392576 0.050889 -0.119974 0.051848 0.107293 -0.118685 -0.183715 0.042725 -0.109371 0.196589 -0.161669 0.061153 0.291513 0.191354 0.014685 -0.120927 -0.024614 0.114006 -0.200592 -0.305603 0.256666 -0.021450 0.015506 -0.032338 -0.023342 -0.093017 -0.283455 0.074938 0.502333 0.057301 0.036808 -0.336005 -0.361397 -0.107403 -0.329160 -0.155213 -0.215990 -0.180610 0.134503 -0.355186 -0.299338 0.154569 -0.011939 -0.047731 0.261075 0.200431 0.350545 -0.131349 -0.122248 0.085777 -0.192035 0.333342 -0.291274 -0.518137 -0.366706 0.073047 -0.056169 0.405843 0.199125 0.119726 0.020722 0.046516 0.385599 -0.138036 0.324026 0.104408 -0.175617 0.183972 -0.104503 0.237158 0.073645 -0.170798 -0.281457
| -0.807540 0.796455 0.416785 -0.395215 -0.550410 -0.097850 -0.231365 -0.277432 -0.180865 0.582410 0.500865 -0.331211 0.747395 -0.500160 0.407550 0.531360 -0.659529 0.377475 -0.395792 0.773365 0.373425 0.285660 -0.136452 0.177882 -0.278020 0.218875 0.830280 0.084344 0.524830 -0.068990 0.586515 0.315605 0.277242 0.015755 -0.044933 0.251585 0.394335 0.611195 -0.698245 -0.729713 0.915840 0.140615 0.259140 -1.005480 -0.595295 -0.074415 -0.447675 -0.075408 0.003760 0.379060 -0.238535 -0.292335 0.079510 -0.347143 -0.686150 -0.158655 0.360215 -0.401295 0.038665 -0.134690 -0.399245 0.052165 -0.505990 0.131443 0.669085 0.755255 -0.441625 0.186295 0.415430 0.729880 0.112651 1.330350 0.658945 0.445782 0.634431 -0.701925 0.437395 0.159670 0.261080 -0.769575 -0.459575 -0.596745 -0.140511 -0.578860 0.245630 -0.350940 0.139080 -0.384250 0.500485 0.360019 -0.382225 0.370340 0.354645 0.411980 0.463465 0.031780 0.346119 0.563745 -0.081260 -0.315835
] -0.095125 0.242633 -0.062125 -0.064950 -0.301003 0.198273 0.279618 -0.359370 0.217978 -0.114090 0.304775 -0.031703 -0.055665 -0.012365 -0.253370 0.237654 -0.279506 0.253662 0.043274 0.361976 -0.173983 0.173707 -0.492822 -0.291216 -0.292074 0.137218 0.289494 0.228884 0.479994 0.204073 0.319545 0.271577 0.239365 0.054068 -0.071773 -0.171583 -0.214044 -0.071401 -0.050087 0.128095 0.279330 0.119666 -0.335919 -0.142400 -0.315104 -0.335088 -0.246666 0.448824 -0.060734 -0.313116 0.328852 0.175932 -0.050803 -0.168637 -0.154567 0.293084 0.103943 -0.029296 0.108284 -0.229169 -0.122400 -0.025493 -0.281064 -0.548866 0.244003 0.027526 -0.209518 -0.010563 0.091832 0.089710 0.164805 0.429710 0.116167 0.004331 0.153783 -0.094246 0.147183 0.097102 0.160707 -0.247312 -0.518086 -0.381931 0.011976 -0.354006 0.140053 0.443332 -0.210057 -0.305032 -0.129573 0.396633 -0.308957 0.162434 0.294836 -0.015976 0.339509 -0.124405 -0.060049 0.065630 -0.163442 -0.240471
~ -0.102040 0.769990 0.116850 0.451130 -0.549150 -0.098196 0.082117 0.708800 -0.515140 0.180420 0.940310 -0.232310 -0.105530 -0.690620 0.506780 -0.427030 -0.596380 0.741250 0.174650 0.320080 0.575050 0.162080 -0.241960 0.606210 0.328970 0.856980 0.722970 0.166000 0.584410 -0.156240 0.306600 -0.001295 -0.131610 -0.045032 -0.501550 0.138530 1.274400 -0.097323 0.795840 0.268440 0.715970 -0.114220 -0.804290 -0.323770 -0.097955 -0.171420 -0.474750 0.156600 -0.689620 -0.304190 -0.360080 -0.174990 0.055186 -0.069981 -1.422800 -0.541480 -0.288960 -0.225120 -0.155120 0.932300 0.207010 0.637480 -1.588800 -0.455360 0.777190 0.103600 0.157700 0.183240 1.124300 0.678480 0.394000 -0.033541 -0.084117 0.662000 0.470540 -0.397640 0.461740 -0.131120 0.031416 -0.758650 -0.365160 -0.685160 0.144550 0.037480 -0.287980 0.846620 0.179620 -1.223400 0.657560 0.903510 -0.289020 1.041900 -0.015057 0.261240 0.245350 -0.766890 0.186900 -0.141600 -0.193210 -0.422480
\ -0.782480 1.097800 0.115350 0.289750 -1.097300 -0.008600 0.951320 0.036121 -0.184320 -0.268670 0.974890 0.258900 -0.862200 -0.178040 -1.109500 -0.424640 -0.448520 0.161280 -0.499660 1.279100 -0.422030 1.085900 -0.632240 0.007452 -0.016745 0.856900 -0.230170 0.021854 0.065358 0.088868 0.177380 0.447710 -0.018585 0.438670 -0.392550 0.622600 -0.124260 0.940260 1.557200 0.476970 0.676980 -0.614740 0.492660 -0.657940 -0.903830 0.385140 -0.271200 -0.250550 0.247740 -0.668120 -0.567320 0.075481 0.205690 -0.269120 -1.042300 -0.701180 0.299770 0.036694 0.416390 0.699520 -1.095700 0.303450 -0.977380 -0.424980 0.315480 0.206250 0.381940 -0.190000 0.150710 0.838690 0.184460 0.811530 0.509510 -0.409660 0.481960 -0.545050 -0.440150 0.474210 0.382790 -0.159920 0.092992 -0.761250 -0.594120 -0.302770 -0.497570 0.168510 -0.324230 -0.733340 0.053629 1.088200 -0.670570 0.918500 -0.750700 0.236990 0.477410 -0.301110 0.329760 -0.001124 -0.065333 0.039897
{ -0.420000 0.948420 -0.132670 0.508270 -0.670140 0.588780 1.079600 0.496870 -0.526870 0.152570 1.024700 0.062124 -0.308960 0.419690 -0.167280 -0.157830 -0.117860 0.365990 -0.386540 0.437340 0.425590 1.180100 -0.809830 0.484980 0.635750 0.801760 0.554040 0.300780 -0.094878 0.267020 0.265600 -0.075306 -0.427820 -0.302370 -0.624740 0.326270 0.252620 0.501490 0.747440 0.347710 0.629580 -1.058900 0.258960 -1.036300 -0.274890 -0.298280 -0.471300 0.180320 0.055621 -0.296680 -0.146460 -0.485740 0.433460 0.844080 -0.426880 -0.681280 0.044747 0.127050 0.807740 0.481000 -0.844640 0.090950 -0.792650 -0.532690 0.708650 0.344750 0.125520 -0.091507 -0.007103 0.719910 0.143080 1.072100 -0.192440 0.069535 0.528090 -0.245340 -0.596000 -0.319530 -0.152570 -0.323020 -0.092680 -0.902260 -0.726860 0.318960 -0.262280 0.213760 -0.154770 -0.197010 0.327460 0.828960 -0.792260 1.304600 -0.478490 -0.068011 -0.330130 -0.778980 0.190800 0.305190 -0.523650 0.095360
> -1.536400 0.676030 0.603220 0.246310 -0.970730 0.477990 0.303830 -0.388700 -0.187150 0.382710 1.056800 0.079616 -0.210280 0.110370 0.178340 -0.186150 -0.316480 0.017163 -0.157400 0.672840 0.321920 -0.174450 0.113030 -0.005664 -0.227290 0.932950 0.157280 0.173190 0.129010 -1.051000 0.416580 0.427970 -0.108610 -0.142980 0.462640 0.676180 0.386290 0.731610 0.183560 0.280680 1.258900 -0.621770 -0.690080 -1.414800 -0.049100 -0.275320 0.081290 0.089841 0.141920 -0.139040 0.166080 -0.006731 -0.582980 -0.444650 -1.295700 -0.200930 -0.152420 0.179500 -0.222420 0.281010 -0.790540 -0.246510 -0.776600 -0.308270 1.445600 0.615280 -0.471080 -0.098189 1.221400 0.173120 -1.069400 0.487980 0.237750 -0.011135 0.388960 -0.509220 -0.063000 -0.440300 -0.257120 -1.443900 0.171800 -0.851360 -0.205010 -0.594600 -0.054264 0.904480 0.210040 -0.993990 0.674960 0.042636 0.098034 0.123810 -0.482160 0.339570 -0.018030 -0.418280 0.202710 -0.053644 0.187810 -1.043100
} -0.415560 1.257300 -0.122120 0.351200 -0.791330 0.222160 0.590930 0.168590 -0.245410 0.326650 0.828400 -0.331870 -0.173100 -0.000840 -0.266240 -0.086444 -0.389800 0.492060 -0.494890 0.682710 0.382390 0.835360 -0.580710 0.346090 0.800360 0.852600 0.568880 0.293520 0.026492 -0.320140 0.437390 0.262990 -0.326180 -0.066011 -0.329030 0.375240 0.181960 0.226710 0.785120 0.253370 0.770870 -0.635460 0.089897 -1.016500 -0.367270 -0.447460 -0.485270 0.219420 -0.101640 -0.636870 -0.224760 0.083155 0.616090 0.463510 -0.930840 -0.395150 -0.127730 0.068811 0.338750 0.503180 -0.992750 -0.503630 -0.858330 -0.280390 0.545750 0.369420 0.352160 0.260160 0.565860 0.736400 0.242420 0.893170 0.105100 -0.198180 0.773000 -0.663150 -0.125840 -0.321420 -0.463650 -0.700870 -0.704420 -0.867440 -0.565890 -0.000570 0.016229 0.240700 -0.172350 -0.663920 0.012094 1.190800 -0.646210 0.854740 -0.423450 0.108430 0.004653 -0.431190 0.328600 -0.184520 -0.672250 -0.095223
* -0.797733 0.353350 0.296418 -0.042167 -0.340909 0.089655 0.238937 0.178462 0.427987 0.077559 0.524990 0.523907 0.183338 -0.046457 -0.506610 0.147822 -0.590385 -0.110130 0.489445 -0.128237 0.025607 0.410852 -0.077063 0.374898 0.189104 0.465047 -0.026380 0.594193 -0.045232 0.198925 -0.389413 0.126778 -0.174832 0.065378 -0.186886 -0.547162 0.035028 -0.482600 -0.015262 0.538312 0.345445 0.018601 0.247053 -0.384222 -0.199521 0.365084 -0.675758 0.341280 -0.333658 0.193742 -0.127128 0.724444 0.071688 -0.619980 -0.276168 0.398861 0.686718 0.331758 0.055462 -0.219527 -0.382961 -0.316013 -0.294418 0.006729 0.537468 0.205660 -0.422217 0.367880 0.060535 0.564747 -0.091661 -0.479713 -0.406715 0.214891 0.224522 -0.151073 0.186933 -0.127700 -0.013822 -0.863535 -0.427492 -0.502108 0.109745 -0.660738 0.458869 0.486530 0.052114 -0.614187 -0.154978 0.096565 -0.092251 -0.008816 0.412522 0.021684 0.746837 0.093716 0.731882 -0.103685 -0.663573 -0.506325
@ -0.173296 0.054897 0.095090 0.087316 -0.026387 0.014928 0.105768 -0.136530 -0.038821 -0.109953 0.097379 0.167479 -0.124042 0.057668 -0.157550 0.045273 -0.019478 0.150975 0.007201 -0.000555 0.012591 0.117741 -0.178713 -0.207865 -0.101010 -0.007877 0.068909 0.052980 0.209426 0.026010 0.182141 0.016295 0.301121 -0.055113 0.138112 -0.086835 -0.171977 -0.209723 -0.188610 0.202637 0.094536 0.117935 -0.296039 -0.095063 0.007928 0.073433 -0.338506 0.206732 0.068279 -0.042655 0.365950 -0.050912 0.016483 -0.146439 0.042019 0.271567 -0.030715 0.067786 -0.037334 -0.117163 -0.044471 -0.151286 -0.148956 -0.359363 -0.381384 -0.207721 -0.086208 -0.111677 0.010479 -0.051093 -0.098542 0.196161 0.062479 -0.077510 0.062789 -0.061592 0.169840 -0.065812 0.083116 -0.137274 -0.206152 -0.123460 0.085226 -0.189338 0.192315 0.245517 0.115825 0.088798 -0.064818 0.061867 -0.151898 0.367125 0.195918 -0.214455 0.165011 -0.011720 0.249394 0.117276 -0.052116 -0.042991
< -1.626900 0.784180 0.026028 0.735450 -1.630000 -0.114500 0.434210 -0.127000 0.169690 0.583060 0.830560 0.278680 -0.151410 0.398810 0.854330 -0.376570 0.100400 0.064814 0.210910 0.802160 0.453110 -0.058486 -0.389690 -0.083717 0.244410 1.234300 -0.132700 0.181500 0.475980 -0.834780 -0.048291 0.249170 0.533080 -0.345480 0.668650 1.017800 0.795430 1.153900 0.152240 0.677070 0.735810 -0.940300 -0.451860 -0.499650 0.106080 -1.027900 0.105420 0.599030 -0.344950 -0.018662 0.265320 0.355660 -0.400290 -0.190520 -1.092000 0.496390 -0.302690 0.405670 0.494890 0.561580 -0.420330 -0.189200 -1.189900 -0.411300 1.159400 0.542210 0.039614 -0.181460 0.990900 0.506380 -0.822530 -0.068735 0.019334 0.269990 0.284580 -0.893820 -0.049179 -0.311890 -0.188050 -1.452100 -0.310260 -1.330500 0.114700 -0.382080 0.165380 0.608620 0.266090 -0.795750 0.689660 -0.333790 -0.337510 0.704540 -0.241560 0.034437 -0.141920 -0.249330 0.030824 0.156170 -0.468840 -0.652490
^ -1.336400 0.347780 -0.178370 0.295990 -0.537710 0.258680 0.833700 0.184690 0.136850 -0.036969 1.001200 0.300960 -0.813170 0.051715 -0.020692 -0.303840 -0.340050 0.124140 -0.636850 0.574560 0.033818 0.307630 -0.329500 0.700870 0.190570 0.673950 0.519760 -0.012390 0.357070 0.157100 0.387850 0.370230 -0.050633 0.370150 0.033806 0.066973 0.076057 0.289760 0.320790 0.546040 0.585290 -0.542240 0.200350 -0.397910 -0.153170 -0.536870 -0.576650 0.410550 -0.356270 -0.010787 -0.553420 0.295340 0.577710 -0.361430 -0.829600 0.098045 0.253110 0.304360 0.117590 0.044889 -1.100000 -0.512390 -0.512460 -0.340820 0.566620 -0.115270 0.020940 0.341980 0.757150 -0.194110 0.153770 0.624350 0.014346 0.567170 0.086015 -0.723270 0.466790 -0.259850 -0.298900 -0.556690 -0.781130 -1.011800 -0.368280 0.188470 0.224150 -0.076967 -0.477370 -0.327850 0.151400 0.645630 -0.622110 1.132500 0.073365 0.053589 0.714600 -0.691360 0.380180 -0.141400 -0.185020 0.073726
