, 0.051325 -0.024557 -0.007168 0.191306 0.002997 -0.073742 -0.089736 0.055097 0.015576 -0.114565 -0.149485 0.081823 0.010151 0.058988 0.030804 0.037880 -0.038008 0.077415 -0.059264 -0.081170 -0.058813 -0.034380 0.092745 0.075137 0.035997 0.012253 -0.071711 -0.022130 -0.034523 -0.133374 0.059099 0.012542 -0.000821 0.060384 -0.034866 0.026987 0.017600 0.119278 0.025079 -0.083784 -0.098434 0.067846 0.057948 -0.050768 0.053194 0.015692 -0.016767 -0.061593 0.056731 -0.014543 -0.014569 -0.029485 0.005500 0.007957 0.060418 0.030361 -0.026782 0.008946 0.064565 -0.008496 0.016453 -0.039902 -0.034124 0.051959 0.047935 0.014656 -0.083977 0.064803 -0.011043 0.082917 -0.028089 -0.092257 -0.049239 -0.017289 -0.145877 0.036044 -0.131633 -0.022147 0.014747 0.049687 -0.135526 0.205974 0.025991 0.023950 0.026076 -0.029339 -0.007614 0.042613 0.081220 0.031230 0.051364 -0.125692 0.046927 -0.029119 -0.073968 -0.011688 -0.081901 -0.030765 -0.142391 0.008904
d 0.052749 0.023562 0.050399 0.210272 -0.005222 -0.072811 -0.002590 0.094736 0.048948 -0.055355 -0.121866 0.017511 0.034677 -0.002068 0.013876 -0.016045 -0.059729 0.038951 -0.049968 -0.056467 -0.059081 -0.023810 0.025695 0.103929 0.056218 0.029705 -0.040801 0.011115 -0.022625 -0.147009 0.021656 -0.002073 -0.002449 -0.041392 -0.031227 0.077950 0.015416 0.060983 0.116603 -0.056440 -0.064784 0.010323 0.064680 0.045185 -0.028570 -0.030121 -0.005889 0.001574 -0.044095 0.023786 0.027680 0.032856 0.028406 -0.024146 0.083150 0.053960 -0.022514 -0.028616 0.067441 -0.012298 0.002657 -0.003032 -0.009772 0.014707 0.004121 -0.008806 0.027827 0.009622 -0.044053 0.027999 0.012700 -0.048758 -0.051493 -0.049459 -0.192454 0.030155 -0.019775 -0.085041 0.044584 0.046990 -0.053628 0.170166 -0.007989 0.012891 0.060303 0.038256 0.014123 0.060410 0.050020 0.046174 0.003967 -0.127872 0.057200 0.029823 -0.029922 0.021442 -0.052064 -0.010858 -0.231934 -0.012212
e 0.055534 0.016012 0.047458 0.203327 0.003730 -0.070300 -0.004369 0.098799 0.058475 -0.067153 -0.132441 0.018185 0.049178 0.003704 0.014576 -0.006861 -0.045920 0.035207 -0.064194 -0.079957 -0.054678 -0.026771 0.031968 0.115728 0.066908 0.031268 -0.046032 0.021977 -0.016253 -0.161121 0.027121 0.006700 0.003271 -0.032223 -0.024580 0.078515 0.016265 0.060573 0.118764 -0.071519 -0.068093 0.008253 0.059288 0.043890 -0.034462 -0.020011 -0.002132 -0.000796 -0.031376 0.018079 0.011365 0.027764 0.023363 -0.022955 0.092565 0.057294 -0.028438 -0.024596 0.058481 -0.005087 -0.007650 0.009237 -0.012354 0.019393 0.007113 -0.007085 0.034596 0.011498 -0.052480 0.033630 0.005673 -0.058226 -0.046703 -0.043737 -0.205022 0.027451 -0.037490 -0.086807 0.027853 0.044972 -0.062890 0.171296 -0.000281 0.000583 0.060136 0.036369 0.021359 0.073400 0.043979 0.045707 0.014696 -0.132009 0.051151 0.026752 -0.023630 0.016929 -0.048285 -0.016871 -0.227246 -0.018180
. 0.094637 0.074497 0.032929 0.177694 -0.000108 -0.048705 -0.062694 0.071598 0.073472 -0.085312 -0.130044 0.065484 0.011811 0.078350 0.045797 0.012188 -0.007062 0.084728 -0.064510 -0.080892 -0.026294 -0.033938 0.072780 0.118799 0.029233 0.044260 -0.104942 0.006881 -0.003980 -0.128058 0.050900 -0.040026 -0.017726 -0.028144 0.013234 0.049787 -0.012880 0.104051 0.041691 -0.067018 -0.098671 0.002917 0.068663 -0.057316 -0.010965 -0.035393 -0.007285 -0.034225 -0.008348 0.005490 -0.026019 -0.000653 -0.057719 -0.011871 0.086567 0.097170 0.006074 0.050081 0.096385 0.016942 -0.018497 -0.053484 -0.004720 0.042940 0.039890 0.027431 -0.014817 -0.047493 -0.027752 0.047798 -0.034300 -0.075934 -0.034103 -0.006978 -0.208858 0.024357 -0.021640 -0.068099 0.036295 0.086570 -0.120700 0.216083 0.020996 0.049406 0.001513 -0.006908 0.016121 0.056074 0.095172 0.060742 0.026773 -0.131003 0.024947 0.044675 -0.005647 -0.005845 -0.023131 -0.050885 -0.197729 0.034242
a 0.048494 0.014517 0.060667 0.196218 0.009376 -0.077485 0.004440 0.093880 0.048815 -0.063592 -0.126171 0.022327 0.047654 -0.003355 0.019243 -0.013725 -0.047716 0.031969 -0.060430 -0.070239 -0.051964 -0.026133 0.029305 0.110979 0.072862 0.028237 -0.042289 0.024185 -0.021365 -0.153329 0.026316 -0.001790 0.004038 -0.030139 -0.032457 0.081557 0.017499 0.053087 0.116050 -0.068145 -0.064404 0.015318 0.061694 0.038747 -0.036538 -0.032081 -0.008873 -0.001580 -0.024330 0.016849 0.024855 0.039709 0.031448 -0.020267 0.086405 0.062116 -0.024263 -0.021258 0.066560 -0.016236 -0.008778 0.008447 -0.012544 0.011984 0.003062 -0.014870 0.032550 0.015606 -0.052437 0.031494 0.005000 -0.053659 -0.049742 -0.048274 -0.206345 0.023771 -0.023540 -0.090983 0.021446 0.049642 -0.059432 0.179122 -0.000520 0.000600 0.059956 0.043551 0.032846 0.082817 0.045202 0.036326 0.005638 -0.131631 0.051623 0.026892 -0.031766 0.015498 -0.058687 -0.023284 -0.229532 0.001043
o 0.062917 0.022915 0.040122 0.200448 0.002417 -0.065301 0.002664 0.099850 0.051903 -0.081107 -0.122928 0.018499 0.034278 -0.009710 0.018008 -0.012266 -0.053293 0.043985 -0.057374 -0.079678 -0.067040 -0.023592 0.014851 0.114850 0.060895 0.022410 -0.039782 0.017817 -0.018743 -0.157926 0.033162 0.009833 -0.003241 -0.023673 -0.006080 0.077283 0.009057 0.066654 0.105674 -0.058537 -0.057898 0.005747 0.063216 0.035623 -0.021812 -0.010188 -0.006700 -0.002248 -0.027912 0.018154 0.006977 0.027181 0.006203 -0.018988 0.090617 0.047652 -0.017645 -0.026721 0.062953 -0.001032 -0.004119 -0.005625 -0.001230 0.012513 0.014855 -0.010704 0.023139 -0.000289 -0.058590 0.013951 0.006956 -0.059932 -0.053411 -0.037762 -0.199047 0.024998 -0.040497 -0.090715 0.037827 0.046522 -0.055321 0.177129 0.001366 -0.002326 0.056671 0.023274 0.012757 0.062340 0.049567 0.039551 0.021061 -0.124037 0.046340 0.026517 -0.017585 0.015281 -0.034266 -0.020184 -0.232930 -0.023589
q 0.056985 0.017323 0.047179 0.194436 0.009714 -0.065153 0.005910 0.097906 0.056459 -0.057577 -0.133244 0.028951 0.046068 -0.004638 0.009302 -0.013829 -0.044658 0.028701 -0.059205 -0.083503 -0.044232 -0.034433 0.027777 0.124525 0.073516 0.020208 -0.041153 0.024592 -0.014528 -0.151729 0.035454 0.006459 0.005072 -0.026486 -0.025045 0.076487 0.010253 0.064238 0.117296 -0.047663 -0.064250 0.012080 0.064243 0.036506 -0.032990 -0.006392 -0.008454 -0.004191 -0.026780 0.017474 0.021834 0.025520 0.011424 -0.016425 0.092799 0.064757 -0.023725 -0.028872 0.071908 -0.001695 0.000818 0.003299 -0.013715 0.010258 0.012758 -0.007939 0.023059 0.000100 -0.052516 0.022137 -0.008837 -0.055373 -0.045694 -0.043613 -0.201085 0.030310 -0.034646 -0.100232 0.030831 0.046911 -0.056981 0.186192 -0.000707 -0.004478 0.047519 0.026343 0.018575 0.071485 0.044153 0.038053 0.018965 -0.112572 0.040819 0.017822 -0.015703 0.013140 -0.038319 -0.028363 -0.224767 -0.003573
u 0.059866 0.019242 0.053866 0.191587 0.008929 -0.062087 0.011089 0.094312 0.057441 -0.074513 -0.130951 0.018106 0.044228 0.000384 0.025612 -0.000316 -0.048450 0.043039 -0.061042 -0.091079 -0.063212 -0.027921 0.035291 0.118070 0.077565 0.031456 -0.045813 0.031698 -0.016001 -0.155449 0.034790 0.006153 0.004476 -0.023173 -0.018198 0.074559 0.022611 0.058137 0.112993 -0.070470 -0.061199 0.014902 0.053208 0.025921 -0.036302 -0.018288 -0.009922 -0.009117 -0.009328 0.012535 0.005017 0.028335 0.019895 -0.016606 0.084587 0.049755 -0.018059 -0.017488 0.061487 -0.005132 -0.011651 0.007265 -0.002273 0.013420 0.010897 -0.012061 0.032265 0.012062 -0.059221 0.026969 -0.000979 -0.053836 -0.049971 -0.032438 -0.210515 0.021804 -0.036147 -0.095609 0.029043 0.049996 -0.066485 0.179020 0.012715 0.002606 0.051006 0.033037 0.029141 0.080945 0.058086 0.035717 0.019238 -0.131625 0.045565 0.033120 -0.028032 0.011721 -0.056770 -0.018623 -0.225973 -0.017290
m 0.053558 0.012713 0.051565 0.213723 -0.006725 -0.078632 -0.010444 0.102487 0.054493 -0.070468 -0.132364 0.015602 0.056166 -0.002321 0.008079 -0.010040 -0.048862 0.035007 -0.057215 -0.081575 -0.046067 -0.027074 0.025482 0.114166 0.073046 0.026611 -0.045754 0.026705 -0.021648 -0.163997 0.032851 0.013930 0.005385 -0.024000 -0.022082 0.080421 0.016780 0.055340 0.126737 -0.064409 -0.071324 0.005576 0.071727 0.060449 -0.038153 -0.010772 0.003040 0.002003 -0.032822 0.015765 0.014744 0.027641 0.015031 -0.017199 0.101622 0.045572 -0.035801 -0.021660 0.059434 0.000750 -0.007178 0.000600 -0.011356 0.019857 0.006547 -0.010204 0.033058 0.010087 -0.054392 0.032158 -0.000514 -0.059324 -0.046708 -0.049409 -0.209898 0.027460 -0.045080 -0.089384 0.024773 0.039270 -0.060233 0.175672 -0.010891 -0.009547 0.063424 0.028697 0.019504 0.075623 0.041531 0.040696 0.012605 -0.134391 0.041787 0.021714 -0.022101 0.013467 -0.046077 -0.026715 -0.225807 -0.013357
p 0.053537 0.023855 0.051968 0.192751 0.004387 -0.068011 0.001644 0.099918 0.056080 -0.060997 -0.131266 0.015053 0.046164 0.003742 0.018652 -0.006871 -0.040473 0.028707 -0.058503 -0.080855 -0.052847 -0.024177 0.024835 0.117020 0.061205 0.037389 -0.040314 0.028547 -0.020392 -0.153735 0.026818 0.008653 -0.001051 -0.028759 -0.018695 0.071064 0.010051 0.063562 0.109316 -0.061052 -0.069321 0.009125 0.061971 0.023755 -0.033704 -0.021957 -0.005853 -0.007322 -0.033873 0.015815 0.012571 0.027333 0.013737 -0.023808 0.091586 0.051622 -0.020984 -0.012873 0.066556 -0.009009 -0.011756 -0.000194 -0.006280 0.004481 0.013362 -0.019523 0.032844 0.000190 -0.051577 0.023081 -0.002511 -0.054292 -0.042828 -0.042256 -0.206213 0.030727 -0.034855 -0.086797 0.025558 0.047017 -0.065941 0.180124 -0.000945 0.012036 0.042095 0.032429 0.020570 0.074271 0.049460 0.039500 0.022849 -0.114635 0.044442 0.024743 -0.021123 0.004453 -0.040024 -0.037231 -0.227460 -0.005293
r 0.056417 0.015503 0.051946 0.196892 0.007719 -0.067984 0.005840 0.096673 0.055839 -0.068590 -0.131835 0.020917 0.045711 -0.000480 0.012617 -0.010120 -0.043752 0.035159 -0.062813 -0.081418 -0.056256 -0.025025 0.027167 0.116372 0.066093 0.029970 -0.040759 0.027816 -0.017994 -0.162198 0.030328 0.008970 0.004630 -0.032336 -0.021917 0.079885 0.018886 0.064471 0.118546 -0.066652 -0.067235 0.010909 0.062866 0.042628 -0.031556 -0.015909 -0.005715 0.001801 -0.028432 0.014381 0.012215 0.031025 0.018747 -0.019852 0.091624 0.057257 -0.028246 -0.023835 0.054198 -0.007104 -0.010291 0.008442 -0.009778 0.013174 0.008133 -0.010812 0.031239 0.009309 -0.057804 0.030266 0.009193 -0.057072 -0.043420 -0.044776 -0.206905 0.022881 -0.036868 -0.089621 0.023561 0.044484 -0.060993 0.173410 0.004998 -0.000390 0.057885 0.034040 0.023477 0.073115 0.039509 0.041966 0.011483 -0.133249 0.046856 0.024197 -0.022895 0.009921 -0.044812 -0.020632 -0.229013 -0.016436
n 0.053165 0.018865 0.048035 0.196751 0.004026 -0.069591 0.004180 0.095637 0.057973 -0.078709 -0.124217 0.013719 0.044579 0.004016 0.017197 -0.003825 -0.048928 0.045579 -0.060850 -0.084729 -0.067951 -0.026274 0.030168 0.111951 0.073447 0.031365 -0.045880 0.025351 -0.012860 -0.155622 0.029044 0.004206 0.004989 -0.027644 -0.016177 0.082114 0.017937 0.060328 0.119742 -0.071730 -0.058328 0.011073 0.052879 0.029779 -0.032181 -0.022395 -0.006793 -0.009035 -0.016168 0.017039 0.006350 0.029938 0.021437 -0.023452 0.086288 0.052165 -0.018851 -0.021606 0.060800 -0.008518 -0.011560 0.007246 -0.007156 0.011770 0.009293 -0.009542 0.035908 0.011504 -0.060317 0.029032 0.009020 -0.058095 -0.052308 -0.036315 -0.208806 0.021248 -0.033392 -0.086906 0.029955 0.049912 -0.061492 0.178606 0.009542 0.002930 0.056218 0.036515 0.031879 0.077565 0.055444 0.035193 0.016643 -0.135552 0.050125 0.035833 -0.029919 0.017202 -0.054246 -0.016041 -0.230059 -0.018118
c 0.052017 0.022688 0.044215 0.192413 0.007406 -0.073478 0.000742 0.102472 0.053909 -0.066015 -0.124650 0.009203 0.043758 0.000346 0.017854 -0.009982 -0.044967 0.029299 -0.060822 -0.080062 -0.051329 -0.021980 0.019971 0.114937 0.063590 0.033760 -0.041108 0.024626 -0.016627 -0.157064 0.026377 0.005263 -0.002495 -0.034162 -0.020255 0.076890 0.005205 0.058813 0.113802 -0.065197 -0.060080 0.009138 0.057828 0.031572 -0.029063 -0.027774 -0.009324 -0.006740 -0.037310 0.018697 0.016778 0.030255 0.014015 -0.023464 0.095464 0.054854 -0.018569 -0.018930 0.071759 -0.015883 -0.007602 0.000661 -0.005389 0.009133 0.016848 -0.017785 0.028993 0.002712 -0.057399 0.019809 0.004573 -0.055229 -0.045235 -0.044445 -0.203701 0.028035 -0.030342 -0.091072 0.022843 0.046582 -0.064339 0.181760 0.000650 0.005226 0.050410 0.038463 0.026550 0.074455 0.044797 0.043071 0.011706 -0.121898 0.045916 0.026581 -0.021979 0.011446 -0.045690 -0.031308 -0.227270 -0.011461
s 0.068841 0.034201 0.032585 0.226179 -0.015429 -0.078467 -0.017415 0.094104 0.052229 -0.055339 -0.120851 0.009963 0.062081 0.006084 -0.005014 -0.020134 -0.043803 0.020822 -0.048732 -0.070476 -0.038210 -0.034210 0.005859 0.114234 0.070327 0.003754 -0.036683 0.031652 -0.024160 -0.154083 0.021736 -0.005444 0.000422 -0.022941 -0.038591 0.084458 -0.004477 0.044023 0.129454 -0.058252 -0.058776 0.016269 0.063126 0.077768 -0.020999 -0.018116 -0.002388 0.003559 -0.040532 0.021183 0.005671 0.028543 0.012843 -0.032042 0.107273 0.064284 -0.037632 -0.026997 0.062475 -0.021748 -0.003388 0.005318 -0.020243 0.020975 0.003165 -0.012795 0.040822 0.001358 -0.048525 0.052825 0.011393 -0.055471 -0.033112 -0.055795 -0.205939 0.028367 -0.047470 -0.063169 0.030939 0.032354 -0.048674 0.188204 -0.034470 -0.007504 0.061829 0.032306 0.019117 0.068379 0.055037 0.050513 0.001462 -0.132802 0.044637 0.020066 -0.017759 0.016010 -0.041946 -0.033115 -0.223473 -0.016525
0 0.040380 0.013658 0.051265 0.130369 -0.005711 -0.067197 -0.055876 0.112649 0.061248 -0.064866 -0.144270 0.010923 0.063815 0.108330 0.026673 0.029497 0.016687 0.136334 -0.035401 -0.138527 -0.047195 -0.017339 0.053162 0.104036 0.094227 0.042186 -0.075290 0.069372 -0.045717 -0.126970 0.004597 -0.040731 0.042414 0.010069 -0.012853 0.034016 -0.028175 0.090051 0.110812 0.014203 -0.064842 -0.015506 0.052498 -0.023076 0.038888 -0.020509 -0.030746 -0.056265 0.062583 0.033698 -0.104303 -0.056519 -0.010614 -0.088617 0.065976 0.064351 0.047135 -0.021875 0.041283 -0.011409 0.058951 -0.092298 -0.024099 0.009533 0.045922 0.001249 0.004003 -0.045440 -0.012299 0.037349 -0.055277 -0.005311 -0.002715 0.046376 -0.156009 0.114430 -0.009418 -0.058702 0.077333 0.128799 -0.152253 0.171308 0.030927 0.044812 -0.061717 -0.023994 0.052077 0.077544 0.113183 0.007452 -0.016694 -0.146197 -0.019519 0.086802 -0.025520 -0.009315 -0.035095 -0.071204 -0.187415 0.015185
) 0.059641 0.069084 0.052426 0.084244 0.034359 -0.033396 -0.063229 0.126513 0.051071 -0.074534 -0.133632 -0.036084 0.050941 0.090925 0.047376 0.017435 -0.035127 0.081262 -0.097996 -0.105528 -0.019808 -0.058083 0.071113 0.123349 0.058734 0.033923 -0.096721 0.113935 -0.072615 -0.136642 0.016318 -0.039420 0.021185 0.062475 0.029980 0.015838 -0.002819 0.048371 0.078322 -0.046154 -0.065972 0.021394 0.048939 -0.105388 0.036993 -0.014892 -0.049447 -0.038611 0.039067 -0.023100 -0.111180 -0.002434 -0.013575 -0.071179 0.110228 0.061766 0.030623 0.019158 0.100499 -0.024825 0.034126 -0.089225 -0.005228 0.027859 0.068589 -0.014143 0.016713 0.007580 -0.021798 0.090314 -0.078156 -0.123705 -0.040854 0.045403 -0.245100 0.114122 -0.131899 -0.052273 0.012673 0.097432 -0.190375 0.216518 0.039710 0.045248 -0.068213 -0.026441 0.027936 0.116646 0.193148 0.060513 0.051604 -0.118448 -0.034346 0.038237 -0.046479 -0.047347 -0.055666 -0.061371 -0.146424 0.029616
( -0.016303 0.020725 0.082593 0.129235 0.066906 -0.031806 -0.096850 0.094378 0.068446 -0.038957 -0.195883 -0.075382 0.081891 0.169086 0.010816 0.009851 -0.099848 0.070529 -0.027699 -0.050582 0.017822 0.030680 0.094140 0.099174 0.118984 0.088497 -0.033664 0.205782 -0.077575 -0.122709 0.007106 0.053753 0.046950 0.091029 -0.011977 0.020833 -0.039705 0.055918 0.142596 -0.040092 -0.064221 -0.027189 -0.038149 -0.061719 0.060864 0.036583 -0.051659 -0.052200 0.055900 0.052426 -0.144477 0.009823 -0.004073 -0.148443 0.076921 0.048831 0.025218 0.067169 0.057659 -0.073327 0.037830 -0.140155 0.021223 0.020872 0.051809 -0.107294 0.128791 0.024566 0.036525 0.064067 -0.080524 -0.043245 -0.047185 0.103416 -0.276613 0.113125 -0.137620 -0.025048 -0.058032 0.090690 -0.183933 0.156916 0.008522 0.130101 -0.137148 -0.052406 0.034785 0.079764 0.182489 0.004182 0.022687 -0.096431 -0.042865 0.072325 -0.005852 -0.035814 -0.100259 -0.051203 -0.219324 0.011210
f 0.050493 0.020791 0.047108 0.189775 0.007694 -0.064517 -0.002880 0.106393 0.059114 -0.064599 -0.123555 0.005049 0.051162 0.012053 0.018613 -0.006958 -0.046097 0.036128 -0.059256 -0.079410 -0.057512 -0.018317 0.027838 0.112199 0.069883 0.036328 -0.040581 0.033077 -0.017520 -0.156988 0.025029 0.001164 -0.004318 -0.030997 -0.018017 0.074665 0.013237 0.063494 0.120661 -0.068935 -0.060912 0.011393 0.050885 0.026249 -0.037738 -0.023553 -0.011488 -0.010753 -0.030348 0.011298 0.004188 0.029011 0.019604 -0.027693 0.089346 0.053918 -0.018399 -0.019070 0.070344 -0.014906 -0.004344 0.003655 -0.003239 0.010857 0.010237 -0.021434 0.030191 0.006431 -0.057289 0.031036 0.006028 -0.059104 -0.046299 -0.040950 -0.211641 0.029203 -0.034788 -0.091770 0.021072 0.048363 -0.069770 0.176386 0.011407 0.006978 0.038699 0.037092 0.030434 0.075769 0.050558 0.037819 0.016810 -0.130587 0.044364 0.027832 -0.028110 0.013428 -0.049033 -0.025238 -0.230441 -0.014261
i 0.055459 0.021229 0.045758 0.197968 0.004065 -0.072064 0.005144 0.098487 0.053528 -0.069307 -0.124640 0.011637 0.044448 0.005776 0.017482 -0.008332 -0.046355 0.033936 -0.061646 -0.079127 -0.056447 -0.027578 0.022527 0.117483 0.072843 0.033746 -0.042089 0.022106 -0.019215 -0.156408 0.025983 0.003834 -0.003166 -0.026615 -0.021668 0.076937 0.009851 0.056706 0.113253 -0.067878 -0.062046 0.012966 0.056018 0.029323 -0.028901 -0.027308 -0.010845 -0.006551 -0.028300 0.017820 0.014448 0.033341 0.018065 -0.021831 0.092557 0.057272 -0.017843 -0.018065 0.071195 -0.009971 -0.012697 0.007198 -0.001320 0.008076 0.014054 -0.015279 0.032194 0.012393 -0.057691 0.023419 0.007180 -0.057281 -0.046998 -0.042617 -0.206290 0.029237 -0.030501 -0.091364 0.027493 0.047180 -0.063315 0.184511 0.003472 0.003243 0.055237 0.037579 0.031044 0.078874 0.050244 0.035081 0.012265 -0.128065 0.049053 0.034353 -0.023043 0.012697 -0.053464 -0.028297 -0.230818 -0.018347
? 0.109350 0.022042 0.009103 0.176886 -0.003819 -0.032329 -0.069061 0.112630 0.042250 -0.071083 -0.226680 0.069949 0.024674 0.036217 0.069742 -0.008320 -0.022349 0.114411 -0.058774 -0.064128 0.001145 -0.100063 0.134601 0.127871 0.055608 -0.048608 -0.107753 0.045593 0.007106 -0.093207 0.050833 0.025979 0.032737 0.061973 -0.021008 0.007753 0.022986 0.076750 0.065041 -0.043934 -0.157277 -0.009726 0.061327 -0.053564 -0.070408 0.031952 0.033556 0.011634 0.052574 -0.010216 -0.033410 0.035171 -0.006176 -0.003017 0.178065 0.093478 -0.068469 0.057088 0.111677 -0.034816 0.005981 -0.024334 -0.020907 0.024240 -0.001942 0.096327 0.001082 0.003331 -0.002850 0.067711 -0.073415 -0.130355 -0.109871 -0.005496 -0.223759 0.078169 -0.084348 -0.084285 0.109455 0.073992 -0.127161 0.195655 0.026888 -0.012466 0.020222 -0.006500 0.043261 0.109110 0.127499 0.038339 0.037568 -0.123438 0.057154 0.023596 -0.054712 -0.007123 -0.063308 -0.061396 -0.194613 -0.020314
- 0.078337 0.011085 0.047566 0.200554 0.016625 -0.086945 -0.004952 0.094704 0.050194 -0.099334 -0.140744 0.039420 0.022080 0.022955 0.047085 -0.032260 -0.054695 0.039674 -0.064371 -0.078821 -0.051353 -0.019785 0.034442 0.123371 0.049123 0.018926 -0.043171 0.008825 0.001474 -0.170770 0.046063 0.003774 0.009281 -0.043113 -0.015622 0.064190 -0.000199 0.074199 0.106270 -0.077182 -0.091292 0.013591 0.061439 0.025598 -0.017230 -0.043887 0.027131 -0.004629 -0.027014 0.022065 -0.000952 0.027453 0.019610 -0.038122 0.094434 0.085512 -0.028955 -0.006419 0.073712 0.001393 -0.013862 -0.017969 -0.023403 0.045450 0.000695 -0.003092 0.026781 -0.003348 -0.046716 0.020480 -0.001362 -0.077288 -0.042921 -0.037664 -0.214305 0.038282 -0.026474 -0.073408 0.018249 0.072323 -0.069456 0.197241 -0.015013 0.013006 0.049979 0.019930 0.013902 0.049465 0.060695 0.049877 0.018620 -0.110153 0.053697 0.031921 -0.019596 0.007175 -0.027328 -0.015236 -0.230750 0.003167
: -0.018193 0.003868 0.074445 0.114511 0.005178 -0.035131 -0.082627 0.037985 0.054376 -0.115349 -0.159783 -0.027677 0.137993 0.161620 -0.006548 -0.003482 0.009137 0.095267 -0.055787 -0.106401 0.011272 -0.035372 0.133624 0.091122 0.044490 0.039645 -0.113556 0.061645 -0.033604 -0.132442 -0.015558 -0.038666 0.115168 -0.014655 -0.016795 -0.015170 -0.020861 0.053239 0.102614 -0.037691 -0.053466 0.003076 0.043586 -0.048404 0.051456 -0.083082 -0.011401 -0.043975 -0.015314 0.009858 -0.055237 -0.002909 -0.016539 -0.101359 0.096445 0.096058 0.114489 -0.005035 0.098380 0.001897 0.079534 -0.048361 -0.030252 0.029410 0.066646 0.060566 -0.027046 -0.013234 -0.045529 0.031099 -0.038162 0.022980 -0.045914 0.085873 -0.206470 0.142395 -0.121300 -0.042654 -0.011983 0.031702 -0.159868 0.184935 -0.009391 0.005728 -0.027693 0.007027 0.073150 0.073171 0.098362 0.032215 -0.033200 -0.160326 -0.028786 0.067219 -0.026002 0.000891 -0.013207 -0.061660 -0.187601 -0.014279
l 0.051374 0.017016 0.045400 0.188246 0.007936 -0.063550 0.014129 0.095534 0.052314 -0.087566 -0.130601 0.018347 0.043727 0.006675 0.023442 -0.001374 -0.048061 0.050391 -0.066521 -0.094511 -0.072251 -0.023884 0.038935 0.114211 0.076170 0.030264 -0.047967 0.030455 -0.014008 -0.159582 0.030695 0.004445 0.007539 -0.024980 -0.007645 0.079015 0.018256 0.064910 0.114839 -0.069283 -0.057375 0.012029 0.051091 0.013895 -0.030488 -0.015395 -0.016799 -0.015189 -0.001616 0.013167 -0.002873 0.035758 0.028889 -0.025767 0.083579 0.052705 -0.009177 -0.024084 0.055216 -0.006775 -0.008976 0.012444 -0.009609 0.003112 0.009248 -0.012624 0.031648 0.012686 -0.067317 0.030340 0.008851 -0.059956 -0.050154 -0.027285 -0.212762 0.017514 -0.034188 -0.087064 0.027639 0.050380 -0.068310 0.179312 0.024595 0.007619 0.053204 0.044185 0.041947 0.086564 0.053268 0.032205 0.014309 -0.146264 0.053086 0.037386 -0.032766 0.023440 -0.059091 -0.018879 -0.235366 -0.023565
t 0.059152 0.018417 0.043419 0.196924 0.002773 -0.065615 0.000105 0.098720 0.055789 -0.068561 -0.123475 0.011005 0.041538 0.001415 0.015795 -0.007203 -0.048027 0.034711 -0.059301 -0.084656 -0.061411 -0.022501 0.022444 0.116484 0.067304 0.034042 -0.039134 0.024051 -0.019917 -0.154065 0.026373 0.007206 -0.002087 -0.033350 -0.016468 0.074915 0.009344 0.063914 0.117960 -0.062561 -0.060383 0.009267 0.059471 0.029150 -0.030456 -0.021099 -0.007876 -0.007711 -0.030230 0.021380 0.008172 0.030539 0.016812 -0.022572 0.093572 0.050613 -0.016758 -0.019351 0.066642 -0.005113 -0.008587 0.000478 -0.001305 0.006939 0.013873 -0.010690 0.031622 0.004796 -0.055699 0.022644 0.004952 -0.055998 -0.041228 -0.045227 -0.205110 0.028859 -0.035647 -0.087786 0.032131 0.043262 -0.061310 0.180790 0.003952 0.006787 0.050190 0.033489 0.025489 0.076715 0.055122 0.040901 0.021225 -0.124929 0.050749 0.030064 -0.026196 0.012771 -0.045112 -0.025072 -0.222924 -0.014749
b 0.056054 0.025622 0.056212 0.186900 0.005464 -0.060798 0.015886 0.097365 0.056926 -0.086932 -0.124272 0.019018 0.050634 0.007068 0.022496 0.000398 -0.044314 0.056345 -0.058807 -0.097314 -0.079220 -0.028646 0.036824 0.111429 0.076466 0.029530 -0.047871 0.042904 -0.014351 -0.155657 0.033455 0.000233 0.004262 -0.014588 -0.005615 0.085041 0.024142 0.061362 0.119615 -0.066097 -0.050899 0.015101 0.049813 0.012655 -0.033152 -0.004807 -0.020814 -0.018939 0.003568 0.005971 -0.007741 0.032314 0.019014 -0.028257 0.077673 0.050049 -0.007457 -0.025246 0.057414 -0.007660 -0.012604 0.011936 -0.008342 0.003520 0.006556 -0.021706 0.034657 0.006339 -0.072363 0.030870 0.010038 -0.054736 -0.052266 -0.019756 -0.217286 0.012389 -0.038974 -0.083044 0.030304 0.053424 -0.067958 0.178125 0.027479 0.001880 0.046453 0.034421 0.039201 0.087388 0.059175 0.029274 0.019960 -0.149054 0.039111 0.034292 -0.030230 0.019100 -0.058000 -0.023261 -0.237468 -0.016474
v 0.048311 0.006448 0.058215 0.204462 0.003687 -0.072595 -0.007864 0.099596 0.049878 -0.060267 -0.135570 0.018824 0.057361 0.004302 0.014018 -0.011839 -0.043532 0.034268 -0.057966 -0.076699 -0.056668 -0.025979 0.024600 0.117714 0.071764 0.030347 -0.045008 0.019536 -0.024933 -0.159854 0.033237 0.008320 0.003140 -0.023011 -0.032849 0.080515 0.016408 0.054425 0.113778 -0.072357 -0.068034 0.007909 0.060295 0.058166 -0.030558 -0.022705 -0.002770 0.005329 -0.031769 0.017289 0.016743 0.025158 0.027336 -0.019407 0.091884 0.059522 -0.026011 -0.020952 0.064788 -0.000442 -0.006913 0.007245 -0.010392 0.011204 0.008508 -0.012218 0.025948 0.017477 -0.042618 0.025313 0.005624 -0.065037 -0.043311 -0.040538 -0.204399 0.037155 -0.041755 -0.090415 0.024627 0.042974 -0.065039 0.172820 0.001071 -0.010870 0.059519 0.032733 0.015609 0.073128 0.041236 0.036806 0.008292 -0.124241 0.048492 0.027071 -0.026106 0.017262 -0.053797 -0.012723 -0.221983 -0.012038
; 0.031848 -0.004386 0.031593 0.092390 0.057502 0.030009 -0.033699 0.026449 0.034233 -0.092678 -0.126817 0.009887 0.061152 0.138984 0.083264 0.002930 0.001515 0.082976 -0.017011 -0.126315 -0.023326 -0.006494 0.130475 0.157565 0.010484 -0.006832 -0.092112 0.081963 -0.020990 -0.156662 0.040179 0.018910 0.060915 0.011258 0.038159 -0.023953 -0.004092 0.012864 0.063563 -0.061523 -0.084919 0.057464 0.033963 -0.030693 0.030059 0.008210 -0.042128 -0.043303 0.062567 -0.014373 -0.041090 0.039042 -0.054709 -0.047177 0.098005 0.065720 0.004244 0.087179 0.145350 0.059431 0.063937 -0.022869 -0.086563 0.075975 0.036216 0.032212 -0.023511 0.023582 0.037248 0.008179 -0.044400 -0.066574 0.000270 0.112081 -0.237449 0.114426 -0.059241 -0.035506 0.050993 0.071511 -0.114202 0.205549 0.015996 -0.000671 -0.027394 -0.047655 -0.013889 0.076300 0.193241 -0.001520 0.038172 -0.164979 0.038601 0.034617 0.011026 -0.051365 -0.069852 -0.059155 -0.120680 -0.038969
! 0.046915 0.067075 0.046782 0.166515 -0.005955 -0.084051 -0.076946 0.100098 0.094122 -0.137811 -0.158317 0.070643 0.073620 0.065647 0.055752 0.033384 -0.046847 0.119252 -0.092808 -0.073038 -0.018037 -0.083832 0.149930 0.143207 0.058213 0.032687 -0.140609 0.036239 -0.043786 -0.108863 0.054737 -0.043367 0.055000 -0.010868 0.013758 -0.011736 0.014264 0.057470 0.000879 -0.082486 -0.103202 0.001701 0.063339 -0.091220 -0.071426 0.004172 0.055571 -0.005455 0.052362 -0.035138 -0.024475 0.021993 0.008642 -0.016472 0.114697 0.095993 0.011465 0.054446 0.101879 0.059313 0.031352 -0.012599 -0.007000 0.011734 0.078196 0.152856 -0.019688 0.001363 -0.022276 0.099367 -0.072276 -0.098757 -0.117690 0.017099 -0.215903 0.066033 -0.068052 -0.107484 0.063769 0.113112 -0.161389 0.194154 -0.014255 -0.012421 0.025752 0.007831 0.015175 0.110825 0.099984 0.057730 0.098619 -0.100421 0.011583 -0.012182 -0.013878 -0.022365 -0.014141 -0.034291 -0.198316 -0.011325
j 0.059758 0.022867 0.062155 0.191501 0.012438 -0.063774 0.017517 0.089907 0.057696 -0.095462 -0.130727 0.018121 0.044627 0.023977 0.017633 -0.001556 -0.041237 0.070296 -0.054660 -0.092502 -0.078844 -0.029195 0.033618 0.112657 0.083192 0.021011 -0.055507 0.050382 -0.010879 -0.152963 0.042603 0.009425 0.012673 0.003558 -0.006970 0.086167 0.022716 0.061105 0.107801 -0.077488 -0.059400 0.013745 0.039251 0.009111 -0.033887 -0.001064 -0.019403 -0.009491 0.019204 0.002753 -0.010891 0.031032 0.029837 -0.010583 0.068779 0.059141 -0.015277 -0.025339 0.054729 -0.001520 -0.013345 0.013150 -0.010815 0.014172 0.000821 -0.025516 0.037158 0.024293 -0.063821 0.033489 0.011654 -0.060847 -0.069472 -0.009412 -0.214758 0.009843 -0.051039 -0.081162 0.035206 0.056045 -0.075108 0.171649 0.025489 0.003196 0.040663 0.029372 0.034939 0.091018 0.061906 0.019436 0.017237 -0.154130 0.034652 0.050993 -0.031377 0.022365 -0.062701 -0.017380 -0.240242 -0.030597
/ 0.057870 0.045394 0.065384 0.132319 0.004663 -0.059470 -0.069311 0.076517 0.069404 -0.087666 -0.116890 -0.010174 0.057152 0.123116 0.068423 -0.004636 -0.020866 0.086231 -0.036189 -0.118991 -0.037929 -0.018092 0.060700 0.095497 0.062197 0.044158 -0.088267 0.063789 -0.023854 -0.112308 0.041904 -0.027625 0.028227 0.023045 0.005527 0.038443 -0.015662 0.072813 0.069073 -0.037635 -0.054661 -0.003997 0.011510 -0.069190 0.004915 -0.021890 -0.015438 -0.053539 0.038513 0.004327 -0.053564 0.001516 -0.025389 -0.089067 0.071967 0.077556 0.026676 0.047357 0.082554 0.006663 0.013747 -0.067055 -0.026631 0.011939 0.051411 -0.031588 0.010882 -0.013689 -0.004861 0.056357 -0.032259 -0.043983 0.000882 0.054536 -0.207832 0.067539 -0.043524 -0.013946 0.041505 0.100288 -0.139229 0.211455 0.041127 0.052913 -0.053295 -0.007050 0.024891 0.050867 0.129289 0.027492 -0.002083 -0.136246 -0.003146 0.051938 -0.019730 -0.008328 -0.050452 -0.072310 -0.178363 0.018689
g 0.057838 0.022591 0.048071 0.189000 0.003475 -0.060228 0.012097 0.092138 0.060965 -0.080063 -0.122372 0.012708 0.049434 0.014703 0.021061 0.002570 -0.042765 0.051972 -0.061661 -0.097394 -0.074955 -0.026201 0.036668 0.108255 0.078258 0.030260 -0.045229 0.036539 -0.012808 -0.155288 0.030233 0.003106 0.007904 -0.019872 -0.009073 0.083405 0.021748 0.059976 0.117298 -0.069803 -0.053861 0.011246 0.046282 0.012309 -0.034076 -0.014143 -0.014574 -0.017246 -0.001399 0.008702 -0.004664 0.034302 0.019971 -0.027709 0.081430 0.052593 -0.008599 -0.021606 0.059565 -0.005080 -0.011641 0.012841 -0.005756 0.008005 0.007443 -0.015696 0.037312 0.006816 -0.067214 0.029317 0.003387 -0.051400 -0.050716 -0.024861 -0.213214 0.019900 -0.039313 -0.085830 0.026372 0.050227 -0.065722 0.177900 0.021512 0.002942 0.045072 0.043082 0.037951 0.082731 0.062655 0.029058 0.019073 -0.139815 0.042488 0.040180 -0.032529 0.018508 -0.055580 -0.019108 -0.232160 -0.022110
h 0.062251 0.021170 0.041988 0.192702 0.000972 -0.055955 0.017754 0.091032 0.060458 -0.096408 -0.134428 0.021554 0.047872 0.014729 0.030496 0.020817 -0.047853 0.068661 -0.070663 -0.105961 -0.088366 -0.024825 0.059269 0.116026 0.084732 0.022935 -0.050355 0.047247 -0.007813 -0.148501 0.037448 0.005341 0.010414 -0.009933 0.001828 0.080504 0.029100 0.058686 0.121230 -0.066244 -0.060558 0.016337 0.046874 -0.000457 -0.034743 0.004909 -0.015853 -0.022354 0.025619 0.001944 -0.022731 0.032540 0.035378 -0.024089 0.067724 0.045070 -0.002476 -0.018561 0.057313 -0.005118 -0.012165 0.020366 -0.009735 0.008786 -0.001255 -0.014707 0.044230 0.010374 -0.070922 0.044616 0.002107 -0.058180 -0.061957 -0.015808 -0.223635 0.013217 -0.044025 -0.078206 0.031141 0.053864 -0.066124 0.169451 0.029990 0.001114 0.052043 0.042229 0.046442 0.103530 0.077845 0.022703 0.029989 -0.158671 0.044629 0.044308 -0.038211 0.027406 -0.061537 -0.009324 -0.243150 -0.028684
% 0.030022 -0.069086 0.065948 0.192693 -0.002515 -0.140511 -0.072479 0.083821 -0.068786 -0.111834 -0.086841 0.043655 0.024525 0.100931 -0.032296 0.089254 -0.028976 0.043523 -0.112468 -0.112912 -0.022840 -0.075862 0.032166 0.057304 0.011686 0.082231 -0.121756 0.023542 -0.144537 -0.070185 -0.009209 0.009698 0.035952 0.125261 -0.035566 0.109095 0.037246 0.078317 0.025603 0.003615 -0.060028 0.023212 0.035034 -0.018085 0.166303 -0.017602 0.055330 -0.177025 0.145831 0.005154 -0.057776 -0.044710 -0.132123 -0.122711 0.025281 0.025034 0.035188 -0.036530 0.035983 -0.064561 0.085940 -0.031746 -0.103318 0.162071 0.099283 -0.016890 -0.104278 0.090866 0.023071 0.175462 -0.100055 -0.117132 0.013487 -0.006606 -0.195537 0.083056 -0.005716 -0.047877 0.070173 0.143947 -0.189279 0.218650 0.072039 0.056327 0.034107 -0.113248 -0.054709 0.083870 0.193800 -0.003877 -0.025955 -0.132320 0.054468 -0.096722 -0.041199 -0.023930 -0.052097 -0.202291 -0.067171 0.023137
z 0.050882 0.014874 0.049756 0.198681 0.007490 -0.069977 0.005472 0.094370 0.047810 -0.095574 -0.128314 0.015622 0.046729 0.011328 0.025733 -0.012325 -0.052465 0.053477 -0.068104 -0.080064 -0.075004 -0.029487 0.045379 0.113396 0.084372 0.022051 -0.044374 0.031062 -0.011652 -0.171074 0.029784 0.007552 0.010478 -0.009035 -0.021491 0.083385 0.020526 0.065218 0.117905 -0.079588 -0.062220 0.006561 0.047654 0.032516 -0.042100 -0.014271 -0.019478 0.003821 0.008559 0.005596 0.001367 0.040420 0.028404 -0.017517 0.075061 0.052872 -0.019195 -0.021965 0.055014 0.000122 -0.011336 0.018872 -0.008098 0.017845 0.010274 -0.014809 0.027200 0.032461 -0.065310 0.035517 0.013156 -0.066889 -0.055443 -0.023969 -0.208804 0.021548 -0.044214 -0.085174 0.030150 0.049029 -0.071082 0.184847 0.030896 -0.006063 0.052266 0.044823 0.038765 0.084348 0.064439 0.016847 0.003314 -0.156661 0.052948 0.034718 -0.041182 0.018795 -0.069038 -0.012972 -0.241692 -0.038536
[ 0.094889 0.024507 -0.000755 0.074568 -0.209088 -0.060445 -0.180735 0.045204 -0.032172 -0.218615 -0.069390 0.004057 -0.037205 0.147198 0.080275 -0.041039 0.032083 0.139597 -0.165517 -0.080600 -0.048194 0.011848 0.232384 0.110457 0.240357 0.061814 -0.173839 0.131825 0.127054 -0.044207 -0.021885 -0.047581 -0.011580 0.060358 -0.091525 -0.059960 0.057851 0.011200 0.067881 0.027116 -0.109362 -0.013197 -0.008479 -0.115877 0.046559 0.059150 0.004212 -0.109663 0.040136 -0.009070 -0.112688 0.039443 -0.141673 0.049577 0.288687 0.111915 0.036809 0.084693 0.103564 -0.088386 0.027437 0.031237 0.117474 0.084624 -0.013691 -0.069566 -0.077339 0.047386 0.125520 0.036593 -0.082695 -0.167582 0.038960 0.020407 -0.186335 0.158528 -0.165128 0.032030 0.025083 0.133884 -0.231674 0.166280 0.072666 0.053892 -0.142183 -0.137255 -0.018216 0.118676 0.163870 -0.150645 0.087241 -0.068549 -0.201834 0.202318 -0.028688 0.020563 -0.134302 -0.228674 -0.133645 0.144383
x 0.051429 0.022773 0.051201 0.191987 -0.009597 -0.066596 0.011343 0.108465 0.053638 -0.062258 -0.123908 0.015046 0.044732 0.003411 0.030891 -0.004274 -0.039432 0.039750 -0.052341 -0.088624 -0.057856 -0.014379 0.023714 0.119249 0.064817 0.044101 -0.038545 0.024984 -0.027023 -0.152356 0.031936 -0.002125 0.001455 -0.026307 -0.011623 0.064789 0.008623 0.065979 0.114671 -0.056836 -0.060779 0.004880 0.064956 0.030896 -0.027292 -0.019041 -0.000188 -0.015303 -0.029749 0.006406 0.001966 0.026466 0.009151 -0.019488 0.091866 0.053932 -0.014329 -0.020888 0.074770 -0.002701 -0.000941 -0.005935 0.004626 0.008931 0.013453 -0.018291 0.033247 -0.008322 -0.045615 0.013444 -0.005584 -0.050626 -0.036841 -0.044862 -0.209816 0.032654 -0.017872 -0.085287 0.043372 0.058578 -0.072482 0.176378 0.005851 0.011101 0.035780 0.027208 0.016951 0.069949 0.048196 0.038427 0.013436 -0.118423 0.041431 0.023141 -0.016533 -0.003635 -0.040483 -0.031054 -0.228697 -0.014652
# 0.145977 -0.025327 0.037811 0.177864 0.013377 -0.085083 -0.083308 0.093533 0.033295 -0.161275 -0.194894 0.056630 0.017350 0.035435 0.135694 -0.058190 -0.089496 0.048955 -0.089043 -0.074661 -0.004044 -0.009396 0.107707 0.099065 0.033388 0.005350 -0.057526 0.009179 0.007732 -0.143276 0.038711 0.019502 0.017968 -0.046037 -0.039975 0.025947 0.026250 0.064451 0.077813 -0.100718 -0.109879 0.001794 0.013527 0.046787 -0.054824 -0.059035 0.075560 0.022713 -0.002183 0.021962 0.009233 0.062414 0.034130 -0.020718 0.084565 0.096831 -0.051370 0.009052 0.081642 -0.002692 0.032899 -0.013009 -0.055094 0.086068 -0.057037 0.045832 0.055331 -0.020099 0.012520 0.006111 -0.015582 -0.108342 -0.086064 0.013418 -0.221483 0.048947 -0.027688 -0.023089 0.047123 0.116011 -0.109543 0.174261 -0.008991 0.004284 0.057863 0.024671 -0.018519 0.036798 0.080783 0.046828 -0.000873 -0.125371 0.093901 0.003378 -0.083322 0.035716 -0.036069 0.027687 -0.143937 -0.006220
] 0.052835 0.017193 0.039180 0.139415 -0.137132 -0.070701 -0.131472 0.081935 -0.015903 -0.163566 -0.130716 0.009790 -0.005928 0.091293 0.084349 -0.015073 -0.002614 0.071759 -0.115216 -0.075780 -0.033235 0.000804 0.149191 0.091210 0.085808 0.093597 -0.059257 0.001318 0.062431 0.003384 -0.022365 -0.057124 0.018605 0.040679 -0.099895 0.018813 0.047926 0.031125 0.088418 -0.028652 -0.035731 0.031770 0.072055 -0.080209 0.039592 0.011978 0.044634 -0.025295 -0.009176 -0.018333 -0.039031 0.053312 -0.002165 0.009654 0.167909 0.112405 0.066801 0.016549 0.108364 -0.056660 0.020209 0.048572 0.078061 0.038770 0.028769 -0.013940 -0.031965 0.049678 0.057961 0.026796 -0.080428 -0.086935 -0.055224 -0.023849 -0.206099 0.074751 -0.136550 0.011277 0.024445 0.105901 -0.196935 0.165449 -0.038280 0.026841 -0.039817 -0.047850 -0.024688 0.127091 0.176714 -0.033346 0.024676 -0.044890 -0.106990 0.148870 -0.027333 -0.019757 -0.004154 -0.131772 -0.184468 0.055987
$ 0.074651 -0.058060 0.082868 0.382539 -0.001707 -0.082526 -0.078282 0.057663 0.035918 -0.011398 -0.281285 0.069574 -0.013803 0.102877 -0.019854 0.067474 -0.016119 0.163227 0.003003 -0.195448 -0.078723 -0.088830 0.138201 0.140384 0.060266 -0.023471 -0.138896 0.058627 -0.223281 -0.104738 -0.156007 0.033290 0.057004 0.041209 -0.091135 0.053431 -0.082097 0.168951 0.030046 0.021303 -0.028460 0.033563 0.127788 -0.090368 0.059703 0.152366 -0.030457 -0.173428 0.125352 0.071522 -0.113713 -0.101176 -0.033154 -0.096199 0.043245 -0.000916 0.045540 -0.088192 -0.041449 -0.045619 0.112759 -0.082907 -0.110245 0.056553 0.155557 0.065193 -0.108286 0.065967 -0.054705 0.176678 -0.025905 0.126954 -0.001146 0.034770 -0.125598 0.255879 -0.025000 0.020099 0.066101 0.184202 -0.292069 0.218079 -0.116993 -0.032519 -0.037242 -0.094564 0.012910 -0.092858 0.112502 0.018083 -0.054694 -0.070255 0.132848 -0.069065 -0.058501 -0.070875 -0.072959 -0.116888 -0.169237 0.041146
k 0.066644 0.024213 0.040854 0.194200 0.001036 -0.051258 0.012862 0.087622 0.066095 -0.113352 -0.125709 0.016161 0.038943 0.046936 0.032060 0.030116 -0.046721 0.092302 -0.068866 -0.128234 -0.118205 -0.022322 0.070404 0.109659 0.098100 0.023625 -0.047519 0.065037 -0.004997 -0.149879 0.052479 -0.000231 0.011423 0.006290 0.008413 0.089875 0.040591 0.062437 0.125471 -0.081379 -0.063618 0.007758 0.028680 -0.016281 -0.032415 0.016761 -0.019553 -0.031531 0.060594 -0.000791 -0.052463 0.026956 0.036861 -0.018925 0.050530 0.039736 0.009072 -0.013839 0.057057 -0.003730 -0.032613 0.024486 -0.002905 0.012427 0.001165 -0.012631 0.041703 0.015755 -0.081506 0.054015 0.015990 -0.068711 -0.065445 -0.001817 -0.236057 0.005342 -0.050598 -0.064430 0.042569 0.061744 -0.075469 0.179628 0.059863 0.001567 0.035121 0.041244 0.061292 0.107814 0.089300 0.008207 0.034512 -0.188011 0.039820 0.063156 -0.057820 0.025410 -0.080551 -0.008494 -0.232154 -0.052231
& 0.032644 0.008559 0.051480 0.102707 0.045013 -0.036279 -0.050805 0.053838 0.057892 -0.066854 -0.105256 -0.002710 0.099320 0.145714 0.121082 -0.016839 0.043008 0.087361 -0.013040 -0.137232 -0.039843 -0.000510 0.100419 0.163855 0.017925 0.036466 -0.075619 0.081849 -0.019438 -0.173018 0.006236 -0.000146 -0.008918 -0.037861 0.029619 0.055805 -0.024369 0.066912 0.071828 -0.055007 -0.084618 0.040750 0.051526 -0.058478 0.002198 -0.024587 -0.020870 -0.077671 -0.001952 -0.026453 -0.049417 0.040872 -0.035955 -0.067575 0.073294 0.059935 0.037614 0.036626 0.115946 0.009977 0.048728 -0.014014 -0.077118 0.043111 0.029023 0.003591 -0.040770 -0.032648 0.011581 0.022011 0.013998 -0.043421 -0.011886 0.024852 -0.261274 0.050848 0.003338 -0.052354 0.067077 0.081141 -0.131727 0.190588 0.066759 0.009346 -0.025439 0.022584 0.040845 0.070792 0.107601 0.003344 0.031949 -0.151654 0.068087 0.012713 0.017069 0.022527 -0.049879 -0.097420 -0.117865 0.013971
_ -0.075090 -0.071552 0.052007 0.134500 -0.086532 -0.133693 -0.112802 -0.067105 0.040496 0.006297 -0.076159 0.110533 -0.007957 0.146896 0.015139 0.072046 0.044872 0.027027 0.029498 -0.126746 0.041011 -0.075554 0.054652 -0.002796 -0.006157 0.067671 -0.151362 0.016495 -0.144114 -0.014390 -0.015316 -0.103089 0.031341 0.053492 -0.012658 0.012039 -0.075296 0.037175 0.000434 0.088443 0.006456 0.059644 0.039019 -0.130821 0.068283 0.014323 0.075668 0.007239 0.163128 0.078952 -0.189004 -0.101323 0.019951 -0.041933 0.005935 -0.028206 0.151811 0.023749 -0.032440 0.084644 0.085129 -0.136782 0.000788 0.039530 0.100186 0.042728 -0.107288 -0.044186 -0.012344 0.032627 -0.137435 0.138041 0.050351 0.014482 -0.078786 0.093474 -0.042280 0.097732 0.079257 0.080676 -0.123660 0.154425 -0.051499 -0.018745 -0.028393 -0.148348 0.014051 -0.011018 0.054224 -0.062210 -0.106137 -0.006031 0.001546 -0.049483 -0.023934 -0.016236 -0.053582 -0.031304 0.021664 0.007694
w 0.073404 0.027212 0.029502 0.185245 -0.011749 -0.031454 0.001301 0.089682 0.072643 -0.095625 -0.119163 0.008804 0.052802 0.054020 0.017434 0.052346 -0.038370 0.101943 -0.055261 -0.129667 -0.109727 -0.028181 0.077426 0.096573 0.078752 0.035546 -0.053828 0.070723 -0.001088 -0.139603 0.042070 0.003666 0.006141 -0.023408 0.013707 0.090248 0.051674 0.074561 0.133211 -0.078457 -0.060884 0.006835 0.024910 -0.036202 -0.030627 0.012329 -0.010936 -0.057205 0.047533 0.002538 -0.063851 0.024240 0.025495 -0.036978 0.063379 0.027010 0.007407 -0.002926 0.045149 -0.004732 -0.026682 0.017216 -0.005380 -0.012022 0.003016 -0.009109 0.047885 -0.004964 -0.076349 0.064957 0.014331 -0.046137 -0.054009 -0.007651 -0.244655 0.003254 -0.045240 -0.066787 0.037074 0.057230 -0.073959 0.170323 0.058842 0.012151 0.040749 0.043824 0.058250 0.111769 0.092580 0.018307 0.039889 -0.191108 0.050983 0.067178 -0.058410 0.030094 -0.065494 -0.008252 -0.211062 -0.034269
y 0.061523 0.025017 0.030187 0.186871 -0.007302 -0.045003 0.014515 0.083696 0.064063 -0.114206 -0.123871 0.019484 0.051912 0.031711 0.026440 0.046345 -0.042436 0.095308 -0.067259 -0.129779 -0.107044 -0.030587 0.074593 0.110931 0.086212 0.034294 -0.055025 0.054966 -0.002814 -0.144089 0.036217 0.009687 0.016140 -0.012537 0.013616 0.087722 0.041880 0.063816 0.129938 -0.076225 -0.059496 0.008302 0.034667 -0.032258 -0.032923 0.005619 -0.020868 -0.043797 0.048819 -0.004183 -0.053228 0.038652 0.044796 -0.019179 0.062170 0.025127 0.003259 -0.017280 0.046399 -0.006019 -0.029648 0.033391 -0.002004 -0.009688 -0.002525 -0.011844 0.054274 0.008741 -0.075901 0.056469 0.002811 -0.058899 -0.066602 -0.005142 -0.248296 -0.001092 -0.042753 -0.068366 0.038034 0.059508 -0.079036 0.173941 0.057281 0.011586 0.055016 0.052280 0.069267 0.118614 0.084311 0.011282 0.036434 -0.187938 0.060356 0.068427 -0.048272 0.037158 -0.081238 -0.008336 -0.232620 -0.056493
+ 0.036819 -0.008873 0.044256 0.158642 -0.023401 -0.089440 -0.088537 0.102988 0.081152 -0.173839 -0.135307 -0.009114 0.074235 0.105548 0.053409 0.028833 -0.005773 0.076254 0.010064 -0.113391 -0.035928 -0.010425 0.081491 0.138858 0.055159 0.037796 -0.084149 0.093025 -0.062658 -0.130537 0.064907 0.003627 0.063445 0.002200 0.021024 -0.025987 -0.022907 0.039795 0.086844 -0.030896 -0.069393 -0.034321 0.000753 -0.063741 0.030398 -0.045057 0.028139 -0.110703 0.026490 0.006776 -0.096219 0.021880 0.011419 -0.101958 0.075836 0.002811 0.048272 0.028774 0.048262 0.001764 0.056804 -0.092691 -0.008421 0.023916 0.061128 -0.058286 0.019900 -0.040746 -0.027233 -0.013189 -0.053437 0.018357 -0.014534 0.067552 -0.207314 0.094252 -0.078510 -0.022632 0.105734 0.076120 -0.114864 0.182407 0.042066 0.077644 -0.027875 -0.027216 0.077761 0.023929 0.121835 -0.015080 0.008893 -0.123362 0.016056 -0.022005 0.005828 -0.000113 0.010563 -0.115576 -0.130673 0.050021
* 0.047931 0.068779 -0.036750 0.100419 0.013985 -0.084175 -0.149216 0.106139 0.099633 -0.083903 -0.144803 0.009341 0.048459 0.084062 0.022728 0.043467 0.045208 0.155098 -0.125485 -0.121492 0.053494 -0.037694 0.177764 0.252591 0.169434 0.034019 -0.130930 0.046303 -0.000088 -0.216519 0.018016 -0.069644 0.060144 0.001086 -0.029953 -0.064186 -0.044324 0.007965 0.058974 -0.108799 -0.170660 -0.039467 0.087130 -0.157379 -0.031331 0.043239 0.000831 0.057252 -0.042898 0.027572 -0.095850 0.097050 -0.044951 -0.046327 0.098896 0.153972 0.064524 0.008109 0.058475 0.071521 0.030359 -0.033257 -0.079272 0.081268 0.076017 0.023151 -0.061472 0.078555 0.011364 -0.008834 -0.099861 -0.081218 -0.069788 0.075880 -0.189350 0.103506 -0.072212 -0.060225 0.106298 0.082064 -0.134338 0.192006 0.055268 -0.006596 -0.117234 -0.046565 0.143606 0.198933 0.052424 0.109802 -0.009691 -0.154942 -0.043381 0.051178 0.032299 0.071166 -0.040392 -0.096914 -0.184398 -0.055561
= 0.047031 0.013780 0.039669 0.154381 -0.012504 -0.090381 -0.106004 0.061588 0.058285 -0.137421 -0.172645 -0.021776 0.090659 0.136186 0.020542 -0.007898 0.030871 0.064758 -0.044596 -0.161144 0.000419 -0.000155 0.104411 0.139435 0.082666 0.045643 -0.093978 0.084270 -0.028416 -0.141615 0.021350 -0.011270 0.079908 0.064672 0.050150 0.034522 0.019590 0.008374 0.078295 -0.024590 -0.067518 -0.005188 -0.001472 -0.067278 -0.000417 0.004511 -0.011937 -0.081762 0.069743 0.044112 -0.096765 0.023025 -0.005503 -0.083925 0.092131 0.085781 0.048451 0.029857 0.068102 -0.012542 0.076154 -0.020954 -0.006373 -0.001328 0.036038 -0.020699 0.014975 0.013795 -0.006555 0.047447 -0.066737 -0.056653 -0.014283 0.063688 -0.177366 0.126026 -0.110999 -0.028438 0.131101 0.076206 -0.158284 0.184296 0.027274 0.044030 -0.045692 0.015205 0.076000 0.073683 0.102577 0.004080 -0.036160 -0.115125 -0.003410 0.057902 0.026198 0.065443 -0.042350 -0.066801 -0.162331 0.028047
| -0.031529 0.032166 0.144363 0.109395 -0.041874 -0.014843 -0.038930 0.055445 0.028858 -0.085341 -0.174847 0.039277 0.119810 0.109792 0.028721 -0.079931 0.065549 0.073119 -0.078982 -0.168986 0.067914 -0.084504 0.102063 0.101528 0.009115 0.016017 -0.195728 0.043291 -0.079985 -0.162805 -0.041273 -0.010195 0.050600 0.024267 0.142076 -0.081650 0.039140 0.030859 0.139204 -0.015925 -0.130683 0.009654 0.116850 -0.147691 0.059585 0.020037 -0.013881 0.023190 0.085044 0.001267 -0.100896 0.045207 -0.089407 -0.012275 0.072294 0.055221 0.109252 0.118559 0.071619 -0.001151 -0.011297 0.011523 0.156747 0.004171 -0.031196 0.038406 0.047116 0.013556 0.027712 0.046138 -0.085943 0.028387 0.013583 0.040508 -0.232196 0.088813 -0.160868 -0.000924 0.103687 0.162784 -0.229157 0.251020 -0.065873 0.063489 -0.063072 -0.066815 0.016621 0.052867 0.071925 0.021386 -0.046457 -0.081639 -0.056614 0.029708 -0.053096 0.035447 0.027640 -0.128341 -0.084497 0.042469
' 0.104442 0.010719 0.015699 0.227028 -0.029522 -0.047341 -0.014601 0.054945 0.110242 -0.107266 -0.129907 0.040468 0.087199 0.034682 0.000533 0.011518 -0.030597 0.078468 -0.052942 -0.151037 -0.082600 -0.090980 0.087302 0.163113 0.055366 0.044528 -0.055274 0.050977 0.000690 -0.134391 0.025969 -0.001905 0.005192 -0.063324 0.008529 0.104768 0.027193 0.088899 0.126928 -0.044530 -0.074239 0.034619 0.046722 -0.040852 -0.066682 -0.025329 -0.000437 -0.058346 0.003086 0.015573 -0.033714 0.054247 0.017108 -0.038600 0.085322 0.042784 -0.017819 -0.008702 0.060842 0.015827 -0.001722 0.006865 -0.014387 0.001473 0.010876 0.000325 0.040123 -0.029140 -0.026581 0.023548 -0.020946 -0.025570 -0.045265 0.005445 -0.267984 0.012303 -0.053128 -0.095280 0.055177 0.033474 -0.089627 0.204183 -0.000256 0.027533 0.033927 0.032957 0.037768 0.099038 0.092862 0.044260 0.088203 -0.153517 0.041980 0.050766 -0.021640 0.014368 -0.039304 -0.023814 -0.200655 0.029048
> -0.036265 0.026498 -0.034304 0.083976 0.011184 -0.128106 -0.045923 0.156944 0.143738 -0.170531 -0.179291 -0.017080 0.223595 0.252215 -0.071794 0.065639 0.099010 0.206021 -0.054662 -0.132339 0.032543 0.076934 0.154277 0.160458 0.080649 0.009087 -0.061000 0.183868 -0.134160 -0.002272 0.066850 -0.016070 0.043199 0.078576 0.058350 -0.005871 -0.056039 0.081162 0.030552 -0.023830 -0.175915 -0.059915 -0.006406 -0.159986 -0.022121 0.069005 0.023893 0.004207 0.000282 0.001784 -0.066181 0.060351 -0.008580 -0.044145 0.139878 0.179652 0.112558 0.062563 0.018385 0.052720 0.158156 0.024561 0.010961 0.034630 0.034837 0.053103 -0.050737 0.020954 0.066518 0.098113 -0.044978 -0.093148 -0.038895 0.089936 -0.283974 0.206252 -0.082271 -0.178105 0.076331 0.203780 -0.222423 0.154069 0.066210 0.031351 -0.033848 -0.106197 -0.001060 0.064805 0.113884 0.000438 0.089790 -0.019714 -0.063261 0.047553 -0.120655 0.081929 -0.000355 -0.124683 -0.196347 0.029882
@ 0.030201 0.010114 -0.002451 0.102215 0.005994 -0.014722 -0.114194 0.090237 0.053522 -0.101376 -0.108659 0.051683 0.005829 0.038240 0.078814 0.066299 0.006158 0.049725 -0.108135 -0.093100 0.006228 -0.040212 0.132984 0.095834 -0.043310 0.010606 -0.097754 0.031815 -0.064128 -0.080330 0.064370 0.003832 0.010699 0.048600 -0.033641 -0.011292 0.035867 0.077021 0.016255 -0.072729 -0.118027 0.052839 0.044506 -0.128272 -0.053518 -0.041445 0.034201 -0.020795 0.036878 -0.007946 -0.106503 0.017023 -0.035115 -0.008120 0.096841 0.053135 0.016738 0.071159 0.092676 0.008283 0.079965 -0.034293 0.008063 0.054628 0.009127 0.081224 -0.019975 -0.066048 0.082562 0.122893 -0.101987 -0.102557 -0.025919 -0.006766 -0.227314 0.088906 -0.021116 -0.043116 0.047436 0.127789 -0.118389 0.192034 0.027546 0.019819 0.040408 -0.029237 -0.013991 0.048318 0.133563 -0.013881 0.053749 -0.125275 0.022220 -0.025568 0.027421 -0.011582 0.026240 -0.100065 -0.121017 0.031519
} -0.125868 0.273562 0.029925 0.256241 0.048381 -0.003764 0.104764 0.062231 0.000198 -0.132082 0.127401 -0.097439 -0.058754 0.190552 0.109092 0.020350 0.160767 0.079282 -0.131918 -0.153407 -0.025471 -0.001560 0.210621 0.086383 0.240844 0.018252 -0.088396 0.276772 -0.003812 -0.081766 -0.079069 -0.167435 0.179751 0.186815 0.091588 -0.155408 0.090218 0.096620 0.150705 -0.050375 -0.053078 0.018797 -0.101495 -0.116818 0.095850 0.311745 0.126041 -0.190118 0.126212 -0.026426 -0.063184 0.095638 -0.208159 0.114563 0.222054 0.160833 0.260061 0.028300 0.013863 -0.090397 0.058936 -0.162015 -0.104911 -0.008495 0.010601 0.138594 0.031881 0.115159 0.027707 -0.288055 0.018663 0.218414 0.035526 0.144073 -0.276212 0.077412 -0.101177 -0.165165 -0.011505 -0.115725 -0.092352 0.128888 0.128680 0.031684 -0.207489 -0.199169 0.135899 0.331176 0.193850 -0.025994 0.070250 -0.047813 -0.343972 0.415137 -0.212291 0.224020 -0.230850 -0.125716 0.095748 0.326891
U 0.004194 0.049250 -0.018152 0.030014 -0.141930 -0.064260 -0.189144 0.106401 -0.021000 -0.013710 -0.230551 -0.118675 0.115182 0.173912 0.061879 -0.038176 -0.037426 0.096806 -0.049020 -0.128952 -0.076854 -0.035710 0.093071 0.141297 -0.060326 -0.006231 -0.082204 0.211678 0.061172 -0.195726 0.001251 -0.090889 0.124298 0.059284 0.077778 0.014348 0.122599 0.088838 -0.038530 -0.190802 -0.253301 -0.082139 0.131880 -0.174989 0.070017 -0.036818 -0.006456 -0.097912 0.101145 -0.045750 -0.076582 -0.011569 -0.027657 -0.154976 0.183580 0.131273 0.065540 0.063570 0.104044 0.118853 0.226726 -0.061955 -0.105968 -0.061542 0.119936 0.182800 0.033513 -0.009470 0.107745 0.091163 0.046370 -0.039426 -0.104478 0.253362 -0.238061 0.136404 0.025741 -0.041017 0.188278 0.086236 -0.193059 0.217116 0.124618 0.164256 -0.199710 -0.176944 0.065952 0.205920 0.111306 0.149682 0.052049 -0.015792 0.011555 0.125517 -0.007828 0.145881 0.040844 0.013165 0.001061 0.084568
R 0.004194 0.049250 -0.018152 0.030014 -0.141930 -0.064260 -0.189144 0.106401 -0.021000 -0.013710 -0.230551 -0.118675 0.115182 0.173912 0.061879 -0.038176 -0.037426 0.096806 -0.049020 -0.128952 -0.076854 -0.035710 0.093071 0.141297 -0.060326 -0.006231 -0.082204 0.211678 0.061172 -0.195726 0.001251 -0.090889 0.124298 0.059284 0.077778 0.014348 0.122599 0.088838 -0.038530 -0.190802 -0.253301 -0.082139 0.131880 -0.174989 0.070017 -0.036818 -0.006456 -0.097912 0.101145 -0.045750 -0.076582 -0.011569 -0.027657 -0.154976 0.183580 0.131273 0.065540 0.063570 0.104044 0.118853 0.226726 -0.061955 -0.105968 -0.061542 0.119936 0.182800 0.033513 -0.009470 0.107745 0.091163 0.046370 -0.039426 -0.104478 0.253362 -0.238061 0.136404 0.025741 -0.041017 0.188278 0.086236 -0.193059 0.217116 0.124618 0.164256 -0.199710 -0.176944 0.065952 0.205920 0.111306 0.149682 0.052049 -0.015792 0.011555 0.125517 -0.007828 0.145881 0.040844 0.013165 0.001061 0.084568
L -0.022547 0.102930 0.032477 -0.095365 -0.200478 -0.045456 -0.266719 0.141879 -0.009970 -0.022129 -0.184920 -0.194649 0.128112 0.194364 0.020288 -0.058034 -0.045411 0.103924 -0.046498 -0.102793 -0.018396 -0.014696 0.114246 0.107186 -0.093560 -0.029683 -0.080808 0.280076 0.050053 -0.192269 -0.019984 -0.156801 0.166862 0.032799 0.099199 -0.019987 0.093091 0.128560 -0.058079 -0.230884 -0.267017 -0.123328 0.097438 -0.220205 0.090571 0.032505 -0.015373 -0.061948 0.142761 -0.066355 -0.107507 -0.039610 0.019317 -0.183129 0.170730 0.100439 0.082412 0.078252 0.059207 0.206634 0.296235 -0.082191 -0.107978 -0.048641 0.119016 0.263124 0.029895 0.053572 0.107952 0.187042 0.100549 0.028791 -0.111251 0.296728 -0.210420 0.153223 0.060651 -0.007501 0.173423 0.061706 -0.228133 0.163319 0.127113 0.201518 -0.191810 -0.224390 0.110571 0.253481 0.098785 0.161661 0.013321 0.020116 -0.007699 0.119736 -0.008453 0.134133 0.118933 0.041564 0.018334 0.110779
^ 0.041926 -0.063551 -0.070358 0.091310 -0.055894 -0.074793 -0.082925 0.044527 0.084834 -0.140419 -0.119647 -0.005331 0.004272 0.130380 0.082887 0.109759 0.052334 0.000020 -0.052458 -0.223182 0.010266 -0.051017 0.140939 0.163990 0.002334 -0.028287 -0.075387 0.093169 -0.059604 -0.053757 0.075304 -0.025292 0.044087 0.048459 0.008939 0.025851 -0.045739 0.046665 0.058398 -0.039079 -0.087279 0.059261 0.039953 -0.096181 0.026680 -0.050601 0.029230 -0.111562 0.002969 0.051134 -0.142713 0.051180 -0.036933 -0.012239 0.083007 0.007718 0.043702 0.014930 0.059223 -0.007002 0.042120 -0.053943 0.016488 0.084675 0.041774 -0.005294 -0.114714 -0.024807 0.047460 0.079114 -0.005159 0.035393 0.067203 0.067470 -0.203365 0.081042 -0.094292 0.016365 0.147771 0.055890 -0.123480 0.208466 0.024830 0.034218 -0.097194 -0.121523 0.053483 0.094643 0.073670 0.041269 0.061149 -0.150426 0.044745 -0.033514 -0.048772 0.070119 -0.014228 -0.154149 -0.003051 0.090735
~ 0.022317 -0.036682 -0.017301 0.189158 -0.062091 -0.057562 -0.100484 0.065789 0.092914 -0.129121 -0.209174 0.057298 0.042086 0.021148 0.019952 0.074567 0.048344 0.127113 -0.099452 -0.096843 -0.051068 -0.100059 0.125143 0.127543 0.117519 -0.004482 -0.074273 0.029412 -0.007123 -0.102501 0.043712 0.016328 0.007573 0.018183 0.024837 0.072858 0.028960 0.051334 0.061210 -0.054941 -0.038214 -0.054107 0.041774 -0.053927 0.089416 0.044712 -0.004912 -0.015086 0.082318 0.067250 -0.025881 0.043036 -0.056567 -0.080578 -0.023552 0.055217 -0.058657 -0.047041 0.029774 -0.013833 0.031288 -0.044962 -0.012618 0.096387 0.028616 0.067143 0.042024 0.019721 0.049124 0.082399 -0.014586 -0.058565 -0.022488 0.030142 -0.194061 0.103500 -0.118942 -0.121327 0.063631 0.044641 -0.129239 0.200978 0.040241 0.038445 -0.037531 -0.019478 0.103422 0.061858 0.161450 0.052207 0.063156 -0.169629 -0.001530 0.001327 -0.049315 0.072567 -0.055306 -0.065772 -0.132582 0.005772
E -0.289965 0.639723 0.538772 -1.349149 -0.785960 0.142576 -1.042465 0.496660 0.100329 -0.106322 0.271392 -0.954392 0.257404 0.398879 -0.395625 -0.256612 -0.125253 0.175108 -0.021288 0.158797 0.566186 0.195442 0.326002 -0.233928 -0.425900 -0.264199 -0.066850 0.964055 -0.061144 -0.157705 -0.232340 -0.815921 0.592500 -0.232047 0.313402 -0.363328 -0.201994 0.525785 -0.253574 -0.631704 -0.404179 -0.535216 -0.246984 -0.672373 0.296106 0.725742 -0.104547 0.297692 0.558914 -0.272398 -0.416757 -0.320018 0.489056 -0.464655 0.042229 -0.207905 0.251131 0.225063 -0.389160 1.084440 0.991318 -0.284548 -0.128069 0.080366 0.109815 1.066366 -0.006282 0.683988 0.110020 1.145826 0.642332 0.710963 -0.178986 0.730396 0.065985 0.321413 0.409752 0.327663 0.024875 -0.183593 -0.578875 -0.374653 0.152065 0.574135 -0.112819 -0.698849 0.556767 0.729086 -0.026423 0.281449 -0.373957 0.379199 -0.200239 0.061926 -0.014706 0.016655 0.899827 0.325552 0.191068 0.372890
M -0.289965 0.639723 0.538772 -1.349149 -0.785960 0.142576 -1.042465 0.496660 0.100329 -0.106322 0.271392 -0.954392 0.257404 0.398879 -0.395625 -0.256612 -0.125253 0.175108 -0.021288 0.158797 0.566186 0.195442 0.326002 -0.233928 -0.425900 -0.264199 -0.066850 0.964055 -0.061144 -0.157705 -0.232340 -0.815921 0.592500 -0.232047 0.313402 -0.363328 -0.201994 0.525785 -0.253574 -0.631704 -0.404179 -0.535216 -0.246984 -0.672373 0.296106 0.725742 -0.104547 0.297692 0.558914 -0.272398 -0.416757 -0.320018 0.489056 -0.464655 0.042229 -0.207905 0.251131 0.225063 -0.389160 1.084440 0.991318 -0.284548 -0.128069 0.080366 0.109815 1.066366 -0.006282 0.683988 0.110020 1.145826 0.642332 0.710963 -0.178986 0.730396 0.065985 0.321413 0.409752 0.327663 0.024875 -0.183593 -0.578875 -0.374653 0.152065 0.574135 -0.112819 -0.698849 0.556767 0.729086 -0.026423 0.281449 -0.373957 0.379199 -0.200239 0.061926 -0.014706 0.016655 0.899827 0.325552 0.191068 0.372890
A -0.289965 0.639723 0.538772 -1.349149 -0.785960 0.142576 -1.042465 0.496660 0.100329 -0.106322 0.271392 -0.954392 0.257404 0.398879 -0.395625 -0.256612 -0.125253 0.175108 -0.021288 0.158797 0.566186 0.195442 0.326002 -0.233928 -0.425900 -0.264199 -0.066850 0.964055 -0.061144 -0.157705 -0.232340 -0.815921 0.592500 -0.232047 0.313402 -0.363328 -0.201994 0.525785 -0.253574 -0.631704 -0.404179 -0.535216 -0.246984 -0.672373 0.296106 0.725742 -0.104547 0.297692 0.558914 -0.272398 -0.416757 -0.320018 0.489056 -0.464655 0.042229 -0.207905 0.251131 0.225063 -0.389160 1.084440 0.991318 -0.284548 -0.128069 0.080366 0.109815 1.066366 -0.006282 0.683988 0.110020 1.145826 0.642332 0.710963 -0.178986 0.730396 0.065985 0.321413 0.409752 0.327663 0.024875 -0.183593 -0.578875 -0.374653 0.152065 0.574135 -0.112819 -0.698849 0.556767 0.729086 -0.026423 0.281449 -0.373957 0.379199 -0.200239 0.061926 -0.014706 0.016655 0.899827 0.325552 0.191068 0.372890
I -0.289965 0.639723 0.538772 -1.349149 -0.785960 0.142576 -1.042465 0.496660 0.100329 -0.106322 0.271392 -0.954392 0.257404 0.398879 -0.395625 -0.256612 -0.125253 0.175108 -0.021288 0.158797 0.566186 0.195442 0.326002 -0.233928 -0.425900 -0.264199 -0.066850 0.964055 -0.061144 -0.157705 -0.232340 -0.815921 0.592500 -0.232047 0.313402 -0.363328 -0.201994 0.525785 -0.253574 -0.631704 -0.404179 -0.535216 -0.246984 -0.672373 0.296106 0.725742 -0.104547 0.297692 0.558914 -0.272398 -0.416757 -0.320018 0.489056 -0.464655 0.042229 -0.207905 0.251131 0.225063 -0.389160 1.084440 0.991318 -0.284548 -0.128069 0.080366 0.109815 1.066366 -0.006282 0.683988 0.110020 1.145826 0.642332 0.710963 -0.178986 0.730396 0.065985 0.321413 0.409752 0.327663 0.024875 -0.183593 -0.578875 -0.374653 0.152065 0.574135 -0.112819 -0.698849 0.556767 0.729086 -0.026423 0.281449 -0.373957 0.379199 -0.200239 0.061926 -0.014706 0.016655 0.899827 0.325552 0.191068 0.372890
\ -0.023620 -0.025205 -0.067259 0.088811 -0.069978 -0.052730 -0.174302 0.008969 0.063657 -0.110003 -0.138217 0.094604 0.049000 0.091460 0.029146 0.050943 0.085786 0.087450 -0.035878 -0.120300 0.121663 -0.028760 0.187099 0.139271 0.081265 -0.028937 -0.129460 0.056966 -0.013850 -0.029954 0.040523 -0.034662 0.090622 0.098459 -0.065947 -0.053131 -0.010718 0.014506 0.020027 -0.058814 -0.190969 0.060253 0.042187 -0.052644 -0.026173 -0.009253 0.043419 -0.055231 0.044054 0.016472 -0.065309 0.115194 0.030900 0.028093 0.109390 0.076027 0.035869 0.131715 0.125173 -0.019943 0.043336 -0.020863 -0.072135 0.054587 -0.001575 0.123592 -0.041096 0.052958 0.133275 0.084320 0.009787 -0.109556 0.039580 0.004887 -0.195821 0.155648 -0.059239 0.014555 0.130193 0.119739 -0.086753 0.198363 0.073428 0.011105 -0.057286 -0.055154 -0.014596 0.058083 0.122839 -0.000689 0.086682 -0.067732 0.003190 0.055541 0.000547 0.019590 -0.005055 -0.072873 -0.096835 0.050717
 -0.475917 -0.463786 0.496731 -0.123258 0.759555 0.493606 -0.091939 -0.782641 0.538819 0.138382 0.035890 -0.447684 0.288117 0.136321 0.216271 0.069556 0.187810 0.111738 0.258945 0.124783 0.813124 -0.371542 0.597801 0.928082 -0.586011 -0.348388 -0.764726 0.697669 0.459163 -0.142290 0.271575 0.630951 0.895148 -0.141692 -0.421094 0.378754 0.272578 -0.439675 -0.250304 -0.389123 -0.298606 0.639540 -0.061571 0.659483 -0.946092 0.714720 -0.319049 -0.482119 0.428621 -0.187055 0.519804 0.546198 0.077582 0.438250 -0.086710 0.419716 -0.855187 -0.108322 -0.235833 -0.089737 0.578632 0.354354 -0.515857 0.248026 -0.373223 0.475921 -0.156211 0.974822 1.068645 -0.111078 0.289751 -0.017046 -0.331014 0.560299 0.094842 0.291403 -0.783940 -0.501769 -0.002996 -0.328491 -0.583263 -1.209965 0.090378 -0.400448 0.689353 0.661722 -0.807555 -0.044012 -0.130091 0.241238 -0.277299 -0.318994 -0.547725 -0.321940 0.214057 -0.018596 -0.416212 0.708775 0.000620 0.180937
< -0.041673 -0.016215 -0.002994 0.140120 -0.062406 -0.138467 -0.166367 0.056008 0.048928 -0.113144 -0.158858 0.067165 0.085295 0.169892 0.027051 0.097247 0.035264 0.122739 -0.122261 -0.224168 -0.022868 -0.012149 0.140323 0.148782 0.096367 0.048115 -0.153518 0.138882 -0.149043 -0.053538 -0.012875 -0.086534 0.045816 0.168219 0.070847 -0.028802 0.033394 -0.033951 0.003550 -0.004771 -0.080289 -0.114538 0.059809 -0.061715 0.141217 -0.010943 0.027239 -0.079106 0.090526 0.041723 -0.147219 0.133049 -0.006633 -0.074136 0.090689 0.041070 0.063093 -0.010321 0.095379 0.039807 0.117447 -0.016536 -0.092134 0.043405 0.045610 -0.005430 -0.029196 0.069732 0.059279 0.030477 -0.126710 0.011353 -0.011376 0.148400 -0.248534 0.151503 -0.088325 -0.005040 0.084770 0.108763 -0.191910 0.204239 0.051339 0.048768 -0.098298 -0.176549 0.105718 0.092135 0.149803 -0.059263 -0.067222 -0.167490 -0.058079 0.077680 -0.025806 0.044100 -0.043816 -0.131083 -0.031187 0.002163
{ 0.205967 0.010890 0.052656 -0.084039 0.000325 0.137069 -0.199671 0.273488 0.165095 0.072535 0.237210 -0.075656 0.097418 0.162645 -0.162909 0.242257 0.056065 0.275962 0.071026 -0.368547 0.198812 0.125652 0.090405 0.095861 0.039576 -0.015041 -0.282727 0.269046 -0.123203 -0.076684 -0.107672 -0.032725 0.213352 0.094992 0.051767 -0.134345 -0.049852 -0.292619 0.064913 0.163519 0.012197 -0.140738 -0.034103 -0.211380 -0.045279 -0.042261 0.098419 -0.101830 -0.265440 -0.077016 -0.203557 0.230444 -0.257192 -0.211809 0.015701 0.208426 0.233145 -0.047378 -0.077779 0.069889 0.177748 -0.041018 -0.063074 0.121628 0.161218 -0.164645 -0.160966 0.172175 0.082428 0.060556 -0.187243 0.267643 0.210806 0.355375 -0.244375 0.163438 -0.092405 -0.008867 0.330989 0.244684 -0.120923 -0.031858 0.027559 -0.022359 -0.306678 -0.057816 0.203762 0.055976 -0.101406 -0.021082 -0.150939 -0.252318 -0.260007 0.094170 0.111683 0.200473 0.035641 -0.146763 0.204538 0.140150
